{"learner":{"attributes":{"scikit_learn":"{\"_estimator_type\": \"regressor\"}"},"feature_names":[],"feature_types":[],"gradient_booster":{"model":{"gbtree_model_param":{"num_parallel_tree":"1","num_trees":"294"},"iteration_indptr":[0,1,2,3,4,5,6,7,8,9,10,11,12,13,14,15,16,17,18,19,20,21,22,23,24,25,26,27,28,29,30,31,32,33,34,35,36,37,38,39,40,41,42,43,44,45,46,47,48,49,50,51,52,53,54,55,56,57,58,59,60,61,62,63,64,65,66,67,68,69,70,71,72,73,74,75,76,77,78,79,80,81,82,83,84,85,86,87,88,89,90,91,92,93,94,95,96,97,98,99,100,101,102,103,104,105,106,107,108,109,110,111,112,113,114,115,116,117,118,119,120,121,122,123,124,125,126,127,128,129,130,131,132,133,134,135,136,137,138,139,140,141,142,143,144,145,146,147,148,149,150,151,152,153,154,155,156,157,158,159,160,161,162,163,164,165,166,167,168,169,170,171,172,173,174,175,176,177,178,179,180,181,182,183,184,185,186,187,188,189,190,191,192,193,194,195,196,197,198,199,200,201,202,203,204,205,206,207,208,209,210,211,212,213,214,215,216,217,218,219,220,221,222,223,224,225,226,227,228,229,230,231,232,233,234,235,236,237,238,239,240,241,242,243,244,245,246,247,248,249,250,251,252,253,254,255,256,257,258,259,260,261,262,263,264,265,266,267,268,269,270,271,272,273,274,275,276,277,278,279,280,281,282,283,284,285,286,287,288,289,290,291,292,293,294],"tree_info":[0,0,0,0,0,0,0,0,0,0,0,0,0,0,0,0,0,0,0,0,0,0,0,0,0,0,0,0,0,0,0,0,0,0,0,0,0,0,0,0,0,0,0,0,0,0,0,0,0,0,0,0,0,0,0,0,0,0,0,0,0,0,0,0,0,0,0,0,0,0,0,0,0,0,0,0,0,0,0,0,0,0,0,0,0,0,0,0,0,0,0,0,0,0,0,0,0,0,0,0,0,0,0,0,0,0,0,0,0,0,0,0,0,0,0,0,0,0,0,0,0,0,0,0,0,0,0,0,0,0,0,0,0,0,0,0,0,0,0,0,0,0,0,0,0,0,0,0,0,0,0,0,0,0,0,0,0,0,0,0,0,0,0,0,0,0,0,0,0,0,0,0,0,0,0,0,0,0,0,0,0,0,0,0,0,0,0,0,0,0,0,0,0,0,0,0,0,0,0,0,0,0,0,0,0,0,0,0,0,0,0,0,0,0,0,0,0,0,0,0,0,0,0,0,0,0,0,0,0,0,0,0,0,0,0,0,0,0,0,0,0,0,0,0,0,0,0,0,0,0,0,0,0,0,0,0,0,0,0,0,0,0,0,0,0,0,0,0,0,0,0,0,0,0,0,0,0,0,0,0,0,0,0,0,0,0,0,0,0,0,0,0,0,0],"trees":[{"base_weights":[2.6102993E-4,1.6110822E5,-3.2165283E2,1.5216683E5,2.3137633E5,2.7612072E5,-4.4331418E2,1.8234625E5,1.3914273E5,2.3515097E5,3.0073773E4,2.592724E5,1.1054774E5,3.6498084E5,-5.2374194E2,1.7069582E4,1.8337175E5,6.886485E4,1.3795772E5,3.412726E4,2.384707E5,9.3398984E4,7.052336E4,1.9293277E4,3.719834E5,9.628572E4,-7.361878E2,1.9901406E4,1.8426106E5,1.29507805E5,1.454607E5,1.9758414E4,7.021887E4,2.732885E4,3.7445306E5,1.2460503E5,8.616957E4,3.9102234E4,-1.0325311E3,1.9930402E5,1.6886933E5,1.5759236E4,1.2996117E5,1.653243E5,1.3605073E5,8.384904E4,1.1568905E5,1.3005621E5,2.5637965E4,7.656987E4,1.377301E5,3.6216723E4,5.5150688E4,2.2716756E4,-1.3326975E3,5.2046258E4,6.971091E4,4.4769207E4,5.546906E4,1.8952799E4,1.3057838E5,1.2291707E4,4.8740176E4,1.2287752E5,1.5230533E5,6.3437355E4,1.2726758E5,7.718525E3,7.6722484E4,7.373939E4,1.308157E5,4.7296336E4,3.251285E4,3.8097887E4,5.424675E4,2.0754002E4,3.4241535E4,3.8498438E4,-1.5129982E3,1.1076657E4,3.829208E4,8.9540205E3,1.23548055E5,6.262617E4,1.4154302E5,1.6128515E4,1.2822809E5,8.071942E3,7.686887E4,6.858804E4,1.2424975E5,4.9286527E4,3.863966E4,3.0564787E4,3.4419543E4,4.9780598E4,6.064313E4,2.7483586E4,1.8656545E4,3.5905848E4,2.8198756E4,3.572556E4,5.731105E4,5.0944984E4,-1.6324523E3,9.252004E3,3.6352414E4,8.583541E3,1.4294784E5,8.0468423E3,1.2866665E5,1.0211304E4,7.705855E4,9.638616E3,1.2496173E5,4.4073125E4,5.2880477E4,3.542341E4,1.29031455E4,3.333307E4,2.8751611E4,3.3457926E4,3.8679473E4,6.4761184E4,4.7627723E4,7.0920664E4,4.650771E4,3.0327953E4,1.9262475E4,2.129568E4,1.8612154E4,3.1819604E4,4.125501E4,3.0801664E4,6.6708623E3,4.6000066E4,3.2557973E4,5.974233E4,1.1121238E4,4.7730113E4,7.0625766E4,3.828097E4,-1.773338E3,9.933088E3,4.2214875E4,1.7053152E4,3.792936E4,5.366694E3,2.2577148E4,4.6546082E4,3.4540402E4,1.3717726E4,1.0775844E4,1.8012748E4,1.3794389E4,2.6953276E3,1.0436373E4,4.1266436E3,9.777697E3,8.030233E3,9.01462E3,1.0960029E4,9.123957E3,5.6641216E3,1.1398697E4,9.317021E3,1.9769791E4,4.8135273E3,1.4003346E4,1.0292143E4,2.1001469E4,6.315646E3,1.3847188E4,2.3620145E4,8.772392E3,1.2327465E4,5.4953926E3,5.041302E3,5.8096973E3,1.9857271E4,9.129946E3,1.4139483E4,1.0157514E4,1.8004686E3,9.073468E3,1.3884853E4,1.1278633E4,8.831369E3,1.0216966E4,1.5750827E4,2.046654E4,1.728775E4,1.2768648E4,2.3128793E4,1.625502E4,1.0665881E4,1.4389556E4,2.1226227E4,-5.3898E2],"categories":[],"categories_nodes":[],"categories_segments":[],"categories_sizes":[],"default_left":[0,0,0,0,0,0,0,0,0,0,0,0,0,0,0,0,0,0,0,0,0,0,0,0,0,0,0,0,0,0,0,0,0,0,0,0,0,0,0,0,0,0,0,0,0,0,0,0,0,0,0,0,0,0,0,0,0,0,0,0,0,0,0,0,0,0,0,0,0,0,0,0,0,0,0,0,0,0,0,0,0,0,0,0,0,0,0,0,0,0,0,0,0,0,0,0,0,0,0,0,0,0,0,0,0,0,0,0,0,0,0,0,0,0,0,0,0,0,0,0,0,0,0,0,0,0,0,0,0,0,0,0,0,0,0,0,0,0,0,0,0,0,0,0,0,0,0,0,0,0,0,0,0,0,0,0,0,0,0,0,0,0,0,0,0,0,0,0,0,0,0,0,0,0,0,0,0,0,0,0,0,0,0,0,0,0,0,0,0,0,0,0,0,0,0,0,0,0,0],"id":0,"left_children":[1,3,5,7,9,11,13,15,17,19,-1,21,-1,23,25,-1,27,-1,29,-1,31,-1,-1,-1,33,35,37,-1,39,41,43,-1,-1,-1,45,47,49,51,53,55,57,-1,59,61,63,-1,-1,65,-1,67,69,71,73,75,77,-1,-1,-1,-1,-1,79,-1,-1,81,83,-1,85,-1,87,-1,89,91,93,-1,95,97,99,101,103,-1,-1,-1,105,-1,107,-1,109,-1,111,-1,113,115,117,119,121,123,125,127,129,131,133,135,137,139,141,-1,-1,-1,143,-1,145,-1,147,-1,149,151,153,155,-1,157,159,161,163,165,167,169,171,173,175,-1,177,179,181,183,-1,185,187,189,-1,191,193,195,197,-1,-1,-1,-1,-1,-1,-1,-1,-1,-1,-1,-1,-1,-1,-1,-1,-1,-1,-1,-1,-1,-1,-1,-1,-1,-1,-1,-1,-1,-1,-1,-1,-1,-1,-1,-1,-1,-1,-1,-1,-1,-1,-1,-1,-1,-1,-1,-1,-1,-1,-1,-1,-1,-1,-1,-1],"loss_changes":[1.8413437E13,4.096262E11,1.1926826E13,2.2264729E11,1.3704888E10,1.6911748E11,1.0418006E13,1.3089374E10,1.8245747E10,1.7070817E9,0E0,7.3205285E10,0E0,1.3882412E11,7.2886874E12,0E0,6.451364E9,0E0,9.184477E9,0E0,1.7364419E9,0E0,0E0,0E0,1.732667E10,2.1157275E11,4.1747415E12,0E0,8.714715E9,4.451205E8,1.9750453E10,0E0,0E0,0E0,2.4217911E10,2.9353312E10,2.740595E11,1.18912975E11,2.502239E12,3.0278156E10,2.871001E9,0E0,1.9634586E8,3.1847875E9,1.5330968E10,0E0,0E0,1.4482932E10,0E0,1.707606E9,3.7333107E10,8.940159E10,1.979397E10,9.838867E10,2.4893587E12,0E0,0E0,0E0,0E0,0E0,1.6174285E8,0E0,0E0,1.9747308E9,1.4187364E10,0E0,4.7854387E9,0E0,1.3686538E9,0E0,2.9347283E10,7.6227543E9,5.128585E9,0E0,8.208122E9,5.2362084E10,5.3837824E9,7.943461E10,2.162353E12,0E0,0E0,0E0,1.6800809E9,0E0,5.26608E9,0E0,3.8841876E9,0E0,1.1571036E9,0E0,1.2808356E9,6.0259697E9,3.3080934E8,3.217752E9,2.118189E9,4.559143E9,1.9510133E10,2.0180632E10,5.5128883E9,9.507045E9,1.295827E9,4.289423E10,7.0731694E9,4.623368E10,1.9360282E12,0E0,0E0,0E0,3.4285814E9,0E0,3.4110177E9,0E0,9.6180634E8,0E0,6.300631E8,2.0903363E9,9.999024E9,1.2352717E8,0E0,4.58752E5,5.2812186E8,5.0910986E9,8.224768E6,3.2927744E8,6.5837466E8,1.4404813E8,3.655598E8,9.31437E9,1.7727734E9,0E0,4.567728E9,4.2898883E9,8.0745595E9,2.7019674E8,0E0,1.605632E9,4.807721E9,6.7992945E9,0E0,2.8909502E10,9.298805E9,2.2427992E10,1.7405625E12,0E0,0E0,0E0,0E0,0E0,0E0,0E0,0E0,0E0,0E0,0E0,0E0,0E0,0E0,0E0,0E0,0E0,0E0,0E0,0E0,0E0,0E0,0E0,0E0,0E0,0E0,0E0,0E0,0E0,0E0,0E0,0E0,0E0,0E0,0E0,0E0,0E0,0E0,0E0,0E0,0E0,0E0,0E0,0E0,0E0,0E0,0E0,0E0,0E0,0E0,0E0,0E0,0E0,0E0,0E0,0E0],"parents":[2147483647,0,0,1,1,2,2,3,3,4,4,5,5,6,6,7,7,8,8,9,9,11,11,13,13,14,14,16,16,18,18,20,20,24,24,25,25,26,26,28,28,29,29,30,30,34,34,35,35,36,36,37,37,38,38,39,39,40,40,42,42,43,43,44,44,47,47,49,49,50,50,51,51,52,52,53,53,54,54,60,60,63,63,64,64,66,66,68,68,70,70,71,71,72,72,74,74,75,75,76,76,77,77,78,78,82,82,84,84,86,86,88,88,90,90,91,91,92,92,93,93,94,94,95,95,96,96,97,97,98,98,99,99,100,100,101,101,102,102,103,103,104,104,108,108,110,110,112,112,114,114,115,115,116,116,117,117,119,119,120,120,121,121,122,122,123,123,124,124,125,125,126,126,127,127,128,128,130,130,131,131,132,132,133,133,135,135,136,136,137,137,139,139,140,140,141,141,142,142],"right_children":[2,4,6,8,10,12,14,16,18,20,-1,22,-1,24,26,-1,28,-1,30,-1,32,-1,-1,-1,34,36,38,-1,40,42,44,-1,-1,-1,46,48,50,52,54,56,58,-1,60,62,64,-1,-1,66,-1,68,70,72,74,76,78,-1,-1,-1,-1,-1,80,-1,-1,82,84,-1,86,-1,88,-1,90,92,94,-1,96,98,100,102,104,-1,-1,-1,106,-1,108,-1,110,-1,112,-1,114,116,118,120,122,124,126,128,130,132,134,136,138,140,142,-1,-1,-1,144,-1,146,-1,148,-1,150,152,154,156,-1,158,160,162,164,166,168,170,172,174,176,-1,178,180,182,184,-1,186,188,190,-1,192,194,196,198,-1,-1,-1,-1,-1,-1,-1,-1,-1,-1,-1,-1,-1,-1,-1,-1,-1,-1,-1,-1,-1,-1,-1,-1,-1,-1,-1,-1,-1,-1,-1,-1,-1,-1,-1,-1,-1,-1,-1,-1,-1,-1,-1,-1,-1,-1,-1,-1,-1,-1,-1,-1,-1,-1,-1,-1],"split_conditions":[2.00001E0,9.0026E4,2.00001E0,2.332E4,9.8332E4,8.5224E4,2.00001E0,2.00001E0,2.00001E0,2.00001E0,3.0073773E4,1.914E4,1.1054774E5,2.00001E0,2.00001E0,1.7069582E4,2.00001E0,6.886485E4,4.8085E4,3.412726E4,2.00001E0,9.3398984E4,7.052336E4,1.9293277E4,2.00001E0,2.1502E4,2.00001E0,1.9901406E4,1.1235E4,2.00001E0,6.2226E4,1.9758414E4,7.021887E4,2.732885E4,2.022E3,3.7E1,9.0026E4,9.0026E4,2.00001E0,1.0016E4,1.9104E4,1.5759236E4,2.00001E0,2.00001E0,7.703E4,8.384904E4,1.1568905E5,2.00001E0,2.5637965E4,2.00001E0,2.00001E0,2.2033E4,2.00001E0,9.0026E4,2.00001E0,5.2046258E4,6.971091E4,4.4769207E4,5.546906E4,1.8952799E4,2.00001E0,1.2291707E4,4.8740176E4,2.00001E0,7.7325E4,6.3437355E4,2.00001E0,7.718525E3,2.00001E0,7.373939E4,2.00001E0,3.7E1,4.806E4,3.8097887E4,9.3721E4,2.2033E4,1.6E1,9.0026E4,2.00001E0,1.1076657E4,3.829208E4,8.9540205E3,2.00001E0,6.262617E4,2.00001E0,1.6128515E4,2.00001E0,8.071942E3,2.00001E0,6.858804E4,2.00001E0,8.865E3,1.9104E4,3.2216E4,8.0045E4,9.0404E4,9.5926E4,3.7E1,2.00001E0,9.3721E4,9.8332E4,2.2033E4,4.2E1,9.0026E4,2.00001E0,9.252004E3,3.6352414E4,8.583541E3,2.00001E0,8.0468423E3,2.00001E0,1.0211304E4,2.00001E0,9.638616E3,9.0806E4,7.733E3,1.1572E4,2.00001E0,1.29031455E4,2.00001E0,4.0202E4,6.1081E4,2.00001E0,2.00001E0,2.00001E0,2.00001E0,2.00001E0,2.00001E0,2.00001E0,2.129568E4,4.806E4,2.00001E0,9.5204E4,2.00001E0,6.6708623E3,3.7E1,4.806E4,9.4062E4,1.1121238E4,2.3226E4,9.5926E4,9.0026E4,2.00001E0,9.933088E3,4.2214875E4,1.7053152E4,3.792936E4,5.366694E3,2.2577148E4,4.6546082E4,3.4540402E4,1.3717726E4,1.0775844E4,1.8012748E4,1.3794389E4,2.6953276E3,1.0436373E4,4.1266436E3,9.777697E3,8.030233E3,9.01462E3,1.0960029E4,9.123957E3,5.6641216E3,1.1398697E4,9.317021E3,1.9769791E4,4.8135273E3,1.4003346E4,1.0292143E4,2.1001469E4,6.315646E3,1.3847188E4,2.3620145E4,8.772392E3,1.2327465E4,5.4953926E3,5.041302E3,5.8096973E3,1.9857271E4,9.129946E3,1.4139483E4,1.0157514E4,1.8004686E3,9.073468E3,1.3884853E4,1.1278633E4,8.831369E3,1.0216966E4,1.5750827E4,2.046654E4,1.728775E4,1.2768648E4,2.3128793E4,1.625502E4,1.0665881E4,1.4389556E4,2.1226227E4,-5.3898E2],"split_indices":[3084,3666,3083,3666,3666,3666,3095,2288,571,331,0,3666,0,3003,3085,0,1755,0,3666,0,395,0,0,0,483,3666,3595,0,3666,637,3666,0,0,0,3667,3665,3666,3666,3584,3666,3666,0,752,2470,3666,0,0,1843,0,2451,365,3666,363,3666,3215,0,0,0,0,0,670,0,0,162,3666,0,1811,0,2482,0,363,3665,3666,0,3666,3666,3665,3666,3222,0,0,0,2596,0,2730,0,1733,0,2444,0,318,3666,3666,3666,3666,3666,3666,3665,2637,3666,3666,3666,3665,3666,3258,0,0,0,2630,0,1863,0,162,0,3666,3666,3666,2307,0,2444,3666,3666,118,369,405,393,2888,1289,2312,0,3666,309,3666,2249,0,3665,3666,3666,0,3666,3666,3666,3219,0,0,0,0,0,0,0,0,0,0,0,0,0,0,0,0,0,0,0,0,0,0,0,0,0,0,0,0,0,0,0,0,0,0,0,0,0,0,0,0,0,0,0,0,0,0,0,0,0,0,0,0,0,0,0,0],"split_type":[0,0,0,0,0,0,0,0,0,0,0,0,0,0,0,0,0,0,0,0,0,0,0,0,0,0,0,0,0,0,0,0,0,0,0,0,0,0,0,0,0,0,0,0,0,0,0,0,0,0,0,0,0,0,0,0,0,0,0,0,0,0,0,0,0,0,0,0,0,0,0,0,0,0,0,0,0,0,0,0,0,0,0,0,0,0,0,0,0,0,0,0,0,0,0,0,0,0,0,0,0,0,0,0,0,0,0,0,0,0,0,0,0,0,0,0,0,0,0,0,0,0,0,0,0,0,0,0,0,0,0,0,0,0,0,0,0,0,0,0,0,0,0,0,0,0,0,0,0,0,0,0,0,0,0,0,0,0,0,0,0,0,0,0,0,0,0,0,0,0,0,0,0,0,0,0,0,0,0,0,0,0,0,0,0,0,0,0,0,0,0,0,0,0,0,0,0,0,0],"sum_hessian":[3.55326E5,7.07E2,3.54619E5,6.3E2,7.7E1,1.55E2,3.54464E5,1.86E2,4.44E2,7.4E1,3E0,1.36E2,1.9E1,7.7E1,3.54387E5,2E0,1.84E2,3E0,4.41E2,3E0,7.1E1,2.8E1,1.08E2,2E0,7.5E1,7.75E2,3.53612E5,2E0,1.82E2,2.16E2,2.25E2,1E0,7E1,1E0,7.4E1,2.01E2,5.74E2,2.61E3,3.51002E5,8.6E1,9.6E1,2E0,2.14E2,6.7E1,1.58E2,1.7E1,5.7E1,1.73E2,2.8E1,4.86E2,8.8E1,2.215E3,3.95E2,4.38E3,3.46622E5,5.9E1,2.7E1,5.9E1,3.7E1,3E0,2.11E2,1E0,6.6E1,9.2E1,6.6E1,3E0,1.7E2,2E0,4.84E2,3E0,8.5E1,5.52E2,1.663E3,3E0,3.92E2,3.745E3,6.35E2,1.561E3,3.45061E5,1E0,2.1E2,1E0,9.1E1,7E0,5.9E1,3E0,1.67E2,2E0,4.82E2,3E0,8.2E1,4.45E2,1.07E2,8.31E2,8.32E2,2.36E2,1.56E2,8.87E2,2.858E3,4.94E2,1.41E2,1.363E3,1.98E2,7.83E2,3.44278E5,1E0,9E1,1E0,5.8E1,1E0,1.66E2,3E0,4.79E2,1E0,8.1E1,1.87E2,2.58E2,7.2E1,3.5E1,3.22E2,5.09E2,6.86E2,1.46E2,2.6E1,2.1E2,8.8E1,6.8E1,6.57E2,2.3E2,1E0,2.857E3,2.84E2,2.1E2,9.2E1,4.9E1,3.18E2,1.045E3,1.74E2,2.4E1,6.76E2,1.07E2,1.21E3,3.43068E5,1E0,5.7E1,3E0,1.63E2,1E0,4.78E2,1E1,7.1E1,1.31E2,5.6E1,9.9E1,1.59E2,1E0,7.1E1,2E0,3.2E2,3.19E2,1.9E2,2.44E2,4.42E2,3E0,1.43E2,3E0,2.3E1,2E0,2.08E2,3E0,8.5E1,3E0,6.5E1,3E0,6.54E2,3E0,2.27E2,1.355E3,1.502E3,3E0,2.81E2,9.8E1,1.12E2,1E0,9.1E1,2.62E2,5.6E1,5.26E2,5.19E2,1.14E2,6E1,1.76E2,5E2,6.6E1,4.1E1,1.039E3,1.71E2,3.14E2,3.42754E5],"tree_param":{"num_deleted":"0","num_feature":"3668","num_nodes":"199","size_leaf_vector":"1"}},{"base_weights":[6.834825E0,1.1509426E5,-2.2293762E2,1.08664125E5,1.6563681E5,1.9706878E5,-3.0976505E2,1.3036441E5,9.9300945E4,8.535614E4,1.5670764E5,1.845885E5,2.7270528E5,2.6131897E5,-3.6734805E2,6.3951527E4,1.27739625E5,5.374901E4,9.831292E4,1.0800616E4,1.578279E5,2.2895245E5,1.7109177E5,2.9653144E5,4.1535426E4,1.5528943E4,2.661013E5,6.8692734E4,-5.188986E2,1.2139196E4,1.2845966E5,5.4691676E4,9.748566E4,1.736049E4,1.597404E5,1.8027385E4,6.81122E4,2.1364484E4,1.731793E5,4.423669E4,9.320089E4,3.2775348E4,2.7090062E5,8.873728E4,6.124465E4,2.7768568E4,-7.2931866E2,7.964405E3,1.2886868E5,4.703312E4,9.668391E4,6.880751E4,1.4932686E5,2.415124E4,1.7501864E5,3.486096E4,2.7570406E5,4.9512848E4,8.6734836E4,5.3939035E4,1.0003964E5,2.5685174E4,3.935703E4,4.087494E4,-8.290009E2,1.3726557E4,1.2952249E5,8.0920093E3,9.693775E4,3.4971816E4,1.6691669E5,2.4392068E4,1.7693544E5,6.0601984E4,2.9065806E5,9.0284836E4,6.622499E4,4.9606195E4,5.7809785E4,8.46859E4,1.30464375E5,3.360316E4,2.3038342E4,2.9735398E4,3.862335E4,3.8751965E4,5.901275E4,1.02697984E5,-8.665599E2,1.3739116E4,1.3019036E5,1.1338159E4,9.725221E4,6.755548E4,1.429776E5,1.4800583E4,5.200718E4,3.2649654E4,2.9531162E5,7.172741E3,9.0914516E4,1.5703771E4,2.299384E4,5.7040715E4,4.420701E4,6.4100402E4,5.30516E4,3.5407043E4,7.70685E4,6.1899387E4,9.338059E4,3.4988234E4,2.757218E4,2.2593494E4,2.7475348E4,2.4452564E4,3.817986E4,5.6816234E4,3.6402387E4,6.368978E4,1.4241247E4,9.026322E4,1.5500025E5,3.101291E4,-9.8722986E2,1.4066693E4,1.308543E5,1.1346443E4,9.757081E4,1.2044375E4,4.2436656E4,4.0204168E4,3.020406E5,1.0433768E4,9.1693805E4,2.5375425E3,5.7463055E4,2.4323833E3,4.4405465E4,2.6508704E3,6.45557E4,4.365495E4,5.7166594E4,3.4449242E4,7.236993E4,6.929391E3,9.568195E4,3.1396057E4,3.762905E4,1.3470756E4,2.6606523E4,1.993492E4,2.3181307E4,2.9084412E3,2.764871E4,2.1589627E4,3.7714562E4,3.4375903E3,5.7212957E4,4.2999645E4,3.559805E4,4.3867354E3,1.8819271E4,1.2020034E5,7.888897E4,2.0497834E4,4.8068367E4,2.9236746E4,4.1171285E4,1.6103282E4,-1.2046677E3,8.662063E3,3.841724E4,8.815166E3,2.862755E4,3.5418184E4,8.986682E4,1.0890766E4,2.7060998E4,5.752345E3,1.6995547E4,2.6844602E3,1.3051271E4,8.1140044E3,1.914049E4,3.0408306E3,1.2915825E4,6.663956E3,1.6975934E4,5.425108E3,2.1386875E4,7.1339614E3,2.872582E4,2.548397E3,9.2790625E3,1.5265195E4,1.0233363E4,2.499898E3,7.865233E3,6.4266636E3,5.3878833E3,1.6690072E4,6.76288E3,3.1260574E3,8.1394497E3,1.0128205E4,1.2339782E4,7.875781E3,1.6975564E4,1.1068318E4,1.4477078E4,9.840007E3,1.0958525E4,3.01939E4,4.759295E4,1.1228774E4,2.3408566E4,1.124602E4,7.981862E3,1.3223862E4,9.678912E3,4.3027812E3,7.1210337E3,7.986827E3,-3.905667E2],"categories":[],"categories_nodes":[],"categories_segments":[],"categories_sizes":[],"default_left":[0,0,0,0,0,0,0,0,0,0,0,0,0,0,0,0,0,0,0,0,0,0,0,0,0,0,0,0,0,0,0,0,0,0,0,0,0,0,0,0,0,0,0,0,0,0,0,0,0,0,0,0,0,0,0,0,0,0,0,0,0,0,0,0,0,0,0,0,0,0,0,0,0,0,0,0,0,0,0,0,0,0,0,0,0,0,0,0,0,0,0,0,0,0,0,0,0,0,0,0,0,0,0,0,0,0,0,0,0,0,0,0,0,0,0,0,0,0,0,0,0,0,0,0,0,0,0,0,0,0,0,0,0,0,0,0,0,0,0,0,0,0,0,0,0,0,0,0,0,0,0,0,0,0,0,0,0,0,0,0,0,0,0,0,0,0,0,0,0,0,0,0,0,0,0,0,0,0,0,0,0,0,0,0,0,0,0,0,0,0,0,0,0,0,0,0,0,0,0,0,0,0,0,0,0,0,0,0,0,0,0,0,0,0,0,0,0,0,0,0,0,0,0,0,0],"id":1,"left_children":[1,3,5,7,9,11,13,15,17,-1,19,21,23,25,27,-1,29,-1,31,-1,33,35,37,39,-1,-1,41,43,45,-1,47,-1,49,-1,51,-1,-1,-1,53,-1,-1,-1,55,57,59,61,63,-1,65,-1,67,-1,69,-1,71,-1,73,-1,75,77,79,81,83,85,87,-1,89,-1,91,-1,93,-1,95,-1,97,99,101,103,105,107,109,111,113,-1,115,117,119,121,123,-1,125,-1,127,-1,129,-1,-1,-1,131,-1,133,-1,-1,135,137,139,141,-1,143,-1,145,147,149,151,153,-1,155,157,159,161,-1,163,165,167,169,-1,171,-1,173,-1,-1,-1,175,-1,177,-1,179,-1,181,-1,183,185,187,-1,189,-1,191,193,195,-1,197,199,201,-1,203,-1,205,-1,207,209,211,-1,-1,213,215,-1,-1,217,219,221,223,-1,-1,-1,-1,-1,-1,-1,-1,-1,-1,-1,-1,-1,-1,-1,-1,-1,-1,-1,-1,-1,-1,-1,-1,-1,-1,-1,-1,-1,-1,-1,-1,-1,-1,-1,-1,-1,-1,-1,-1,-1,-1,-1,-1,-1,-1,-1,-1,-1,-1,-1,-1,-1,-1],"loss_changes":[9.396264E12,2.1209756E11,6.0748197E12,1.1526367E11,4.2061267E10,9.692093E10,5.3402434E12,1.5353512E10,1.903113E10,0E0,4.2412278E9,4.285897E10,2.0238041E10,6.3565726E10,3.709094E12,0E0,6.100353E9,0E0,1.4164689E10,0E0,4.4662784E9,3.995992E9,9.678094E9,2.8595978E9,0E0,0E0,2.5874661E10,1.1041715E11,2.1048128E12,0E0,4.0299397E9,0E0,6.764364E9,0E0,2.1399208E10,0E0,0E0,0E0,3.2327598E9,0E0,0E0,0E0,2.0383793E10,1.883072E10,1.5587069E11,6.2027334E10,1.4557162E12,0E0,3.6251894E9,0E0,4.9778524E9,0E0,1.4688846E10,0E0,3.3528218E9,0E0,1.1660689E10,0E0,8.946844E9,5.199364E9,3.0526341E10,4.5667844E10,1.4160101E10,3.0019944E10,1.3616582E12,0E0,3.7599314E9,0E0,4.1929933E9,0E0,2.6665288E10,0E0,6.876037E8,0E0,1.2894863E10,4.8959324E9,1.0578166E9,6.871253E9,4.0225341E9,7.817462E9,6.43942E10,3.654746E9,2.6636452E9,0E0,4.6405386E9,2.9934092E10,1.0648289E9,6.8605837E10,1.3465939E12,0E0,3.3619968E9,0E0,4.266918E9,0E0,4.1621914E8,0E0,0E0,0E0,1.4834729E10,0E0,4.052353E9,0E0,0E0,1.4425129E9,6.2826086E8,1.9714867E9,3.1884902E9,0E0,1.7926717E9,0E0,1.1032658E9,3.0494884E9,7.000965E8,1.9101123E9,1.7217126E8,0E0,3.6925604E9,8.478392E8,2.0245381E9,7.0783795E8,0E0,2.6271285E10,6.5575977E9,2.2613066E10,1.2959062E12,0E0,3.4128527E9,0E0,4.154196E9,0E0,0E0,0E0,8.288469E9,0E0,3.562406E9,0E0,1.02036275E9,0E0,5.158011E8,0E0,1.3286113E9,3.182428E8,1.531904E9,0E0,5.8351616E8,0E0,1.1300372E9,1.0917315E9,7.9273656E9,0E0,2.7849523E8,4.6637056E8,1.7604936E9,0E0,1.0300621E8,0E0,3.9054868E9,0E0,4.5023232E8,4.07339E8,9.403105E8,0E0,0E0,2.7296072E9,4.3574886E8,0E0,0E0,1.9290587E10,4.811227E9,5.0156405E10,1.2740225E12,0E0,0E0,0E0,0E0,0E0,0E0,0E0,0E0,0E0,0E0,0E0,0E0,0E0,0E0,0E0,0E0,0E0,0E0,0E0,0E0,0E0,0E0,0E0,0E0,0E0,0E0,0E0,0E0,0E0,0E0,0E0,0E0,0E0,0E0,0E0,0E0,0E0,0E0,0E0,0E0,0E0,0E0,0E0,0E0,0E0,0E0,0E0,0E0,0E0,0E0,0E0,0E0,0E0,0E0],"parents":[2147483647,0,0,1,1,2,2,3,3,4,4,5,5,6,6,7,7,8,8,10,10,11,11,12,12,13,13,14,14,16,16,18,18,20,20,21,21,22,22,23,23,26,26,27,27,28,28,30,30,32,32,34,34,38,38,42,42,43,43,44,44,45,45,46,46,48,48,50,50,52,52,54,54,56,56,58,58,59,59,60,60,61,61,62,62,63,63,64,64,66,66,68,68,70,70,72,72,74,74,75,75,76,76,77,77,78,78,79,79,80,80,81,81,82,82,84,84,85,85,86,86,87,87,88,88,90,90,92,92,94,94,98,98,100,100,103,103,104,104,105,105,106,106,108,108,110,110,111,111,112,112,113,113,114,114,116,116,117,117,118,118,119,119,121,121,122,122,123,123,124,124,126,126,128,128,132,132,134,134,136,136,138,138,140,140,141,141,142,142,144,144,146,146,147,147,148,148,150,150,151,151,152,152,154,154,156,156,158,158,159,159,160,160,163,163,164,164,167,167,168,168,169,169,170,170],"right_children":[2,4,6,8,10,12,14,16,18,-1,20,22,24,26,28,-1,30,-1,32,-1,34,36,38,40,-1,-1,42,44,46,-1,48,-1,50,-1,52,-1,-1,-1,54,-1,-1,-1,56,58,60,62,64,-1,66,-1,68,-1,70,-1,72,-1,74,-1,76,78,80,82,84,86,88,-1,90,-1,92,-1,94,-1,96,-1,98,100,102,104,106,108,110,112,114,-1,116,118,120,122,124,-1,126,-1,128,-1,130,-1,-1,-1,132,-1,134,-1,-1,136,138,140,142,-1,144,-1,146,148,150,152,154,-1,156,158,160,162,-1,164,166,168,170,-1,172,-1,174,-1,-1,-1,176,-1,178,-1,180,-1,182,-1,184,186,188,-1,190,-1,192,194,196,-1,198,200,202,-1,204,-1,206,-1,208,210,212,-1,-1,214,216,-1,-1,218,220,222,224,-1,-1,-1,-1,-1,-1,-1,-1,-1,-1,-1,-1,-1,-1,-1,-1,-1,-1,-1,-1,-1,-1,-1,-1,-1,-1,-1,-1,-1,-1,-1,-1,-1,-1,-1,-1,-1,-1,-1,-1,-1,-1,-1,-1,-1,-1,-1,-1,-1,-1,-1,-1,-1,-1],"split_conditions":[2.00001E0,9.0026E4,2.00001E0,2.332E4,2.00001E0,8.5224E4,2.00001E0,2.00001E0,2.00001E0,8.535614E4,2.00001E0,1.914E4,9.4546E4,2.00001E0,2.00001E0,6.3951527E4,2.00001E0,5.374901E4,2.00001E0,1.0800616E4,2.00001E0,2.00001E0,2.00001E0,2.00001E0,4.1535426E4,1.5528943E4,2.00001E0,2.3226E4,2.00001E0,1.2139196E4,2.00001E0,5.4691676E4,2.00001E0,1.736049E4,9.0404E4,1.8027385E4,6.81122E4,2.1364484E4,2.00001E0,4.423669E4,9.320089E4,3.2775348E4,2.00001E0,2.00001E0,9.0026E4,9.0026E4,2.00001E0,7.964405E3,2.00001E0,4.703312E4,2.00001E0,6.880751E4,9.4062E4,2.415124E4,2.00001E0,3.486096E4,1.5213E4,4.9512848E4,3.7E1,4.471E4,9.4062E4,2.2033E4,2.00001E0,9.0026E4,2.00001E0,1.3726557E4,2.00001E0,8.0920093E3,2.00001E0,3.4971816E4,9.4305E4,2.4392068E4,2.00001E0,6.0601984E4,2.00001E0,2.00001E0,1.9104E4,3.2073E4,6.3131E4,9.0404E4,9.4546E4,3.7E1,8.0045E4,2.9735398E4,2.00001E0,1.1795E4,9.5926E4,8.5224E4,2.00001E0,1.3739116E4,2.00001E0,1.1338159E4,2.00001E0,6.755548E4,2.00001E0,1.4800583E4,5.200718E4,3.2649654E4,2.00001E0,7.172741E3,2.00001E0,1.5703771E4,2.299384E4,2.00001E0,2.00001E0,2.00001E0,7.5165E4,3.5407043E4,2.00001E0,6.1899387E4,2.00001E0,1.0016E4,2.00001E0,1.3E1,2.00001E0,2.4452564E4,2.00001E0,2.00001E0,2.2908E4,2.00001E0,1.4241247E4,2.1502E4,2.00001E0,9.0026E4,2.00001E0,1.4066693E4,2.00001E0,1.1346443E4,2.00001E0,1.2044375E4,4.2436656E4,4.0204168E4,2.00001E0,1.0433768E4,2.00001E0,2.5375425E3,2.00001E0,2.4323833E3,2.00001E0,2.6508704E3,2.00001E0,2.00001E0,2.00001E0,3.4449242E4,2.00001E0,6.929391E3,2.00001E0,2.00001E0,1.0549E4,1.3470756E4,2.00001E0,3.3407E4,2.00001E0,2.9084412E3,2.00001E0,2.1589627E4,9.3721E4,3.4375903E3,2.00001E0,1.9104E4,4.867E4,4.3867354E3,1.8819271E4,2.001E4,2.00001E0,2.0497834E4,4.8068367E4,2.1502E4,9.5926E4,9.0026E4,2.00001E0,8.662063E3,3.841724E4,8.815166E3,2.862755E4,3.5418184E4,8.986682E4,1.0890766E4,2.7060998E4,5.752345E3,1.6995547E4,2.6844602E3,1.3051271E4,8.1140044E3,1.914049E4,3.0408306E3,1.2915825E4,6.663956E3,1.6975934E4,5.425108E3,2.1386875E4,7.1339614E3,2.872582E4,2.548397E3,9.2790625E3,1.5265195E4,1.0233363E4,2.499898E3,7.865233E3,6.4266636E3,5.3878833E3,1.6690072E4,6.76288E3,3.1260574E3,8.1394497E3,1.0128205E4,1.2339782E4,7.875781E3,1.6975564E4,1.1068318E4,1.4477078E4,9.840007E3,1.0958525E4,3.01939E4,4.759295E4,1.1228774E4,2.3408566E4,1.124602E4,7.981862E3,1.3223862E4,9.678912E3,4.3027812E3,7.1210337E3,7.986827E3,-3.905667E2],"split_indices":[3084,3666,3083,3666,363,3666,3095,1843,571,0,295,3666,3666,3003,3085,0,2291,0,914,0,441,540,3032,204,0,0,1589,3666,3595,0,1712,0,2645,0,3666,0,0,0,2843,0,0,0,488,1843,3666,3666,3234,0,1768,0,2581,0,3666,0,1986,0,3666,0,3665,3666,3666,3666,363,3666,3086,0,2288,0,1230,0,3666,0,683,0,2118,1720,3666,3666,3666,3666,3666,3665,3666,0,229,3666,3666,3666,3371,0,2862,0,1591,0,393,0,0,0,2575,0,1768,0,0,2423,637,1019,3666,0,204,0,2920,3666,2312,3665,104,0,309,2804,3666,398,0,3666,2886,3666,3584,0,2376,0,1011,0,0,0,14,0,1924,0,1938,0,611,0,1459,1228,2581,0,439,0,78,1731,3666,0,2369,3666,2561,0,1679,0,3666,0,1758,3666,3666,0,0,3666,772,0,0,3666,3666,3666,3215,0,0,0,0,0,0,0,0,0,0,0,0,0,0,0,0,0,0,0,0,0,0,0,0,0,0,0,0,0,0,0,0,0,0,0,0,0,0,0,0,0,0,0,0,0,0,0,0,0,0,0,0,0,0],"split_type":[0,0,0,0,0,0,0,0,0,0,0,0,0,0,0,0,0,0,0,0,0,0,0,0,0,0,0,0,0,0,0,0,0,0,0,0,0,0,0,0,0,0,0,0,0,0,0,0,0,0,0,0,0,0,0,0,0,0,0,0,0,0,0,0,0,0,0,0,0,0,0,0,0,0,0,0,0,0,0,0,0,0,0,0,0,0,0,0,0,0,0,0,0,0,0,0,0,0,0,0,0,0,0,0,0,0,0,0,0,0,0,0,0,0,0,0,0,0,0,0,0,0,0,0,0,0,0,0,0,0,0,0,0,0,0,0,0,0,0,0,0,0,0,0,0,0,0,0,0,0,0,0,0,0,0,0,0,0,0,0,0,0,0,0,0,0,0,0,0,0,0,0,0,0,0,0,0,0,0,0,0,0,0,0,0,0,0,0,0,0,0,0,0,0,0,0,0,0,0,0,0,0,0,0,0,0,0,0,0,0,0,0,0,0,0,0,0,0,0,0,0,0,0,0,0],"sum_hessian":[3.55326E5,7.07E2,3.54619E5,6.3E2,7.7E1,1.55E2,3.54464E5,1.86E2,4.44E2,3E0,7.4E1,1.36E2,1.9E1,7.7E1,3.54387E5,3E0,1.83E2,3E0,4.41E2,1E0,7.3E1,2.8E1,1.08E2,1.5E1,4E0,2E0,7.5E1,7.75E2,3.53612E5,2E0,1.81E2,2E0,4.39E2,2E0,7.1E1,1E0,2.7E1,3E0,1.05E2,3E0,1.2E1,3E0,7.2E1,2.07E2,5.68E2,2.61E3,3.51002E5,1E0,1.8E2,3E0,4.36E2,6E0,6.5E1,3E0,1.02E2,3E0,6.9E1,3E0,2.04E2,4.8E2,8.8E1,2.215E3,3.95E2,8.38E2,3.50164E5,2E0,1.78E2,2E0,4.34E2,2.7E1,3.8E1,3E0,9.9E1,1.5E1,5.4E1,1.71E2,3.3E1,2.33E2,2.47E2,6.1E1,2.7E1,5.52E2,1.663E3,3E0,3.92E2,7.53E2,8.5E1,1.26E2,3.50038E5,2E0,1.76E2,3E0,4.31E2,8E0,3E1,1E0,9.8E1,2E0,5.2E1,2E0,1.69E2,1.9E1,1.4E1,9.4E1,1.39E2,1.01E2,1.46E2,8E0,5.3E1,7E0,2E1,4.45E2,1.07E2,1.517E3,1.46E2,2E0,3.9E2,8.4E1,6.69E2,5.5E1,3E1,1.04E2,2.2E1,1.319E3,3.48719E5,2E0,1.74E2,3E0,4.28E2,1E0,2.9E1,3E0,4.9E1,3E0,1.66E2,1E0,9.3E1,1E0,1.38E2,1E0,1E2,4.8E1,9.8E1,3E0,5E1,1E0,1.9E1,1.94E2,2.51E2,3E0,1.04E2,2.81E2,1.236E3,2E0,1.44E2,3E0,3.87E2,1E0,8.3E1,6.7E1,6.02E2,1E0,5.4E1,2.6E1,7.8E1,3E0,1.9E1,1.126E3,1.93E2,4.38E3,3.44339E5,1E0,1.73E2,2E0,4.26E2,2E0,4.7E1,3E0,1.63E2,2E0,9.1E1,1E0,1.37E2,3E0,9.7E1,1E0,4.7E1,3E0,9.5E1,1E0,4.9E1,1E0,1.8E1,3E0,1.91E2,3.6E1,2.15E2,2E0,1.02E2,1.15E2,1.66E2,1E0,1.235E3,2E0,1.42E2,2.33E2,1.54E2,3E0,8E1,4.1E1,2.6E1,3E2,3.02E2,2.1E1,5E0,3E0,7.5E1,1.95E2,9.31E2,1.26E2,6.7E1,3.745E3,6.35E2,1.561E3,3.42778E5],"tree_param":{"num_deleted":"0","num_feature":"3668","num_nodes":"225","size_leaf_vector":"1"}},{"base_weights":[1.1871582E1,8.244911E4,-1.5271468E2,7.74899E4,1.2151084E5,1.4196911E5,-2.1526204E2,1.01829E5,7.265956E4,6.662046E4,1.14230875E5,1.3219225E5,2.0184216E5,1.8922302E5,-2.5695636E2,8.870843E4,1.1918622E5,4.19511E4,7.19852E4,1.16303E5,1.4157731E4,1.6491602E5,1.2227316E5,6.3899805E4,3.1810596E4,1.2499071E4,1.9251673E5,4.9178965E4,-3.6544223E2,3.558861E4,7.358005E4,1.4108567E5,2.7469725E4,4.4020715E4,7.139994E4,1.5461536E4,1.18297055E5,1.2165097E4,1.6783684E5,1.5281119E4,1.2376341E5,1.6801742E5,2.2095275E5,6.99351E4,4.516221E4,7.1576375E4,-4.1348685E2,8.2282484E4,1.592297E4,4.8470656E4,1.486834E5,3.6709348E4,7.0849125E4,1.5699368E4,1.2042313E5,1.9886723E4,5.060413E4,1.534358E4,1.2533217E5,1.0179211E4,1.7025505E5,1.5730224E4,2.2461266E5,3.864477E4,6.730395E4,4.069346E4,7.30238E4,2.7506469E4,6.785665E4,2.1575229E4,-5.655481E2,3.3881653E3,8.439423E4,3.5492773E3,1.7729348E4,1.1426734E4,4.473006E4,8.173164E4,6.8484734E4,8.842515E3,1.2134615E5,1.2375798E4,1.2655797E5,1.0279884E4,1.7258075E5,1.6715783E4,2.2829205E5,5.5693215E4,7.4175484E4,5.326256E4,3.8387707E4,4.3966668E4,6.8583805E4,6.420389E4,2.550475E4,2.0048139E4,3.1531627E4,2.6075506E4,-6.8641064E2,1.1933963E4,8.799727E4,1.9217469E4,9.7766875E4,7.221366E4,6.1211734E4,1.3973264E4,1.2292485E5,1.2763313E4,1.27793164E5,1.874403E4,1.7631306E5,1.77686E4,2.319771E5,7.551856E4,3.9416477E4,6.875723E3,7.601196E4,4.2557617E4,6.025889E4,2.3320025E4,3.8048945E4,3.994604E4,6.4484914E4,5.1449443E3,1.8838643E4,2.613209E4,1.8143895E4,3.4209035E4,2.536095E4,2.4685303E4,3.4544062E4,1.972162E4,-8.400759E2,6.7989463E3,2.6260375E4,5.198221E3,9.9285016E4,7.125611E3,7.2641086E4,3.2357764E4,5.9499074E4,5.154665E4,1.14234625E5,1.6597684E4,1.2942371E5,2.1137512E4,1.7979908E5,1.786673E4,2.3590142E5,8.558806E3,2.3076885E4,2.6828625E4,4.6723863E4,7.370094E3,7.791205E4,1.2318523E4,4.3933605E4,4.280745E3,6.090484E4,2.1624193E4,3.766785E4,4.496155E3,6.5508145E4,2.8143092E4,1.9670604E4,1.9951969E4,1.807034E4,3.0250213E4,3.8696703E4,1.1680125E4,7.1727803E3,3.2194715E4,2.2717717E4,3.7124164E4,8.463058E3,1.8217889E4,2.808663E4,3.6513723E4,-9.247195E2,1.1322124E4,2.9676615E4,7.5002563E3,2.1382016E4,3.0644389E4,1.6938148E4,2.5670898E4,3.8299703E4,1.6674979E4,3.8382684E4,2.1485803E4,5.372351E4,1.989124E4,7.012413E4,1.72964E3,8.217895E3,2.9093933E3,1.4165505E4,5.859497E3,2.3233436E4,1.1385126E3,4.269321E3,1.4543326E4,9.641125E3,4.5643525E3,1.8009846E4,1.8974426E4,1.0933589E4,5.259581E3,1.9457693E4,7.3791787E3,9.00771E3,-6.624019E2,5.8154585E3,4.9764326E3,5.569103E3,1.4771976E4,8.364509E3,1.324752E4,9.704838E3,1.0256437E4,7.5076445E3,2.0223001E2,6.654481E3,9.866235E3,1.2091272E4,7.005137E3,4.7804756E3,2.3208479E4,8.046553E3,3.5733324E4,1.0544389E4,8.1005684E3,-3.0181714E2],"categories":[],"categories_nodes":[],"categories_segments":[],"categories_sizes":[],"default_left":[0,0,0,0,0,0,0,0,0,0,0,0,0,0,0,0,0,0,0,0,0,0,0,0,0,0,0,0,0,0,0,0,0,0,0,0,0,0,0,0,0,0,0,0,0,0,0,0,0,0,0,0,0,0,0,0,0,0,0,0,0,0,0,0,0,0,0,0,0,0,0,0,0,0,0,0,0,0,0,0,0,0,0,0,0,0,0,0,0,0,0,0,0,0,0,0,0,0,0,0,0,0,0,0,0,0,0,0,0,0,0,0,0,0,0,0,0,0,0,0,0,0,0,0,0,0,0,0,0,0,0,0,0,0,0,0,0,0,0,0,0,0,0,0,0,0,0,0,0,0,0,0,0,0,0,0,0,0,0,0,0,0,0,0,0,0,0,0,0,0,0,0,0,0,0,0,0,0,0,0,0,0,0,0,0,0,0,0,0,0,0,0,0,0,0,0,0,0,0,0,0,0,0,0,0,0,0,0,0,0,0,0,0,0,0,0,0,0,0,0,0,0,0,0,0,0,0,0,0,0,0,0,0],"id":2,"left_children":[1,3,5,7,9,11,13,15,17,-1,19,21,23,25,27,29,31,-1,33,35,-1,37,39,-1,-1,-1,41,43,45,-1,47,49,-1,-1,51,-1,53,-1,55,-1,57,59,61,63,65,67,69,71,-1,73,75,-1,77,-1,79,-1,-1,-1,81,-1,83,-1,85,-1,87,89,91,-1,93,95,97,-1,99,-1,-1,-1,-1,101,103,-1,105,-1,107,-1,109,-1,111,113,115,117,119,-1,121,123,-1,125,127,129,131,-1,133,-1,135,137,139,-1,141,-1,143,-1,145,-1,147,149,151,-1,153,155,157,-1,159,-1,161,-1,-1,163,165,167,169,171,173,175,177,-1,-1,-1,179,-1,181,-1,183,-1,185,-1,187,-1,189,-1,191,-1,-1,193,195,-1,197,199,201,-1,203,-1,205,-1,207,209,211,-1,213,215,217,-1,-1,219,221,223,-1,225,227,229,231,-1,-1,-1,-1,-1,-1,-1,-1,-1,-1,-1,-1,-1,-1,-1,-1,-1,-1,-1,-1,-1,-1,-1,-1,-1,-1,-1,-1,-1,-1,-1,-1,-1,-1,-1,-1,-1,-1,-1,-1,-1,-1,-1,-1,-1,-1,-1,-1,-1,-1,-1,-1,-1,-1],"loss_changes":[4.8211013E12,1.2773491E11,3.1523707E12,6.678538E10,3.425711E10,6.4635798E10,2.799791E12,1.2656312E10,1.4943519E10,0E0,4.6084915E9,2.4303895E10,6.9972787E9,2.9419373E10,1.9006361E12,2.1904622E10,9.497477E9,0E0,1.3450609E10,2.863399E9,0E0,3.4719007E9,4.9182147E9,0E0,0E0,0E0,1.5822488E10,6.1538304E10,1.222263E12,0E0,3.0318592E9,6.8665016E9,0E0,0E0,6.737625E9,0E0,3.0250107E9,0E0,2.4312545E9,0E0,5.29177E9,7.494435E9,7.5100324E9,1.1376656E10,7.833112E10,1.3294502E10,1.181578E12,3.3530184E9,0E0,5.8546995E8,2.2282568E9,0E0,7.8339113E9,0E0,1.8291098E9,0E0,0E0,0E0,5.133435E9,0E0,7.766147E9,0E0,6.065881E9,0E0,5.522686E9,1.4329774E10,2.0204683E10,0E0,8.919581E9,3.626867E10,1.1300501E12,0E0,8.121549E8,0E0,0E0,0E0,0E0,1.6254304E10,7.3769943E9,0E0,1.6837509E9,0E0,4.774953E9,0E0,6.1266985E9,0E0,4.442161E9,1.2835226E10,5.008818E9,3.801645E9,3.6968202E9,0E0,1.513567E10,2.302935E8,0E0,2.3936106E10,4.435804E9,1.7807507E10,1.095637E12,0E0,7.1768474E8,0E0,3.337814E9,4.0009728E9,6.4377324E9,0E0,9.007727E9,0E0,4.134273E9,0E0,1.8912379E9,0E0,5.0512527E9,9.318236E8,1.4140088E9,0E0,4.7985787E9,9.983304E8,5.534843E8,0E0,3.7587517E9,0E0,3.165487E9,0E0,0E0,5.943427E9,4.6853325E9,2.7556905E9,2.7468186E8,1.943706E10,2.1350154E9,3.2331334E10,1.09639814E12,0E0,0E0,0E0,1.3337559E9,0E0,3.6127375E9,0E0,5.0253005E9,0E0,1.3660586E10,0E0,4.5208044E9,0E0,2.1504983E9,0E0,1.1256463E9,0E0,0E0,1.7418035E8,5.6787354E8,0E0,4.1248686E9,6.27424E5,5.7840435E8,0E0,4.152197E8,0E0,1.5781069E9,0E0,2.5631785E9,2.149548E9,5.801042E8,0E0,1.3193052E9,2.6775224E9,2.1355889E9,0E0,0E0,4.3404165E9,4.5468877E8,7.234847E8,0E0,2.347611E10,9.84046E9,2.814758E10,1.054407E12,0E0,0E0,0E0,0E0,0E0,0E0,0E0,0E0,0E0,0E0,0E0,0E0,0E0,0E0,0E0,0E0,0E0,0E0,0E0,0E0,0E0,0E0,0E0,0E0,0E0,0E0,0E0,0E0,0E0,0E0,0E0,0E0,0E0,0E0,0E0,0E0,0E0,0E0,0E0,0E0,0E0,0E0,0E0,0E0,0E0,0E0,0E0,0E0,0E0,0E0,0E0,0E0,0E0,0E0],"parents":[2147483647,0,0,1,1,2,2,3,3,4,4,5,5,6,6,7,7,8,8,10,10,11,11,12,12,13,13,14,14,15,15,16,16,18,18,19,19,21,21,22,22,26,26,27,27,28,28,30,30,31,31,34,34,36,36,38,38,40,40,41,41,42,42,43,43,44,44,45,45,46,46,47,47,49,49,50,50,52,52,54,54,58,58,60,60,62,62,64,64,65,65,66,66,68,68,69,69,70,70,72,72,77,77,78,78,80,80,82,82,84,84,86,86,87,87,88,88,89,89,90,90,92,92,93,93,95,95,96,96,97,97,98,98,100,100,102,102,103,103,104,104,106,106,108,108,110,110,112,112,113,113,114,114,116,116,117,117,118,118,120,120,122,122,125,125,126,126,127,127,128,128,129,129,130,130,131,131,132,132,136,136,138,138,140,140,142,142,144,144,146,146,148,148,151,151,152,152,154,154,155,155,156,156,158,158,160,160,162,162,163,163,164,164,166,166,167,167,168,168,171,171,172,172,173,173,175,175,176,176,177,177,178,178],"right_children":[2,4,6,8,10,12,14,16,18,-1,20,22,24,26,28,30,32,-1,34,36,-1,38,40,-1,-1,-1,42,44,46,-1,48,50,-1,-1,52,-1,54,-1,56,-1,58,60,62,64,66,68,70,72,-1,74,76,-1,78,-1,80,-1,-1,-1,82,-1,84,-1,86,-1,88,90,92,-1,94,96,98,-1,100,-1,-1,-1,-1,102,104,-1,106,-1,108,-1,110,-1,112,114,116,118,120,-1,122,124,-1,126,128,130,132,-1,134,-1,136,138,140,-1,142,-1,144,-1,146,-1,148,150,152,-1,154,156,158,-1,160,-1,162,-1,-1,164,166,168,170,172,174,176,178,-1,-1,-1,180,-1,182,-1,184,-1,186,-1,188,-1,190,-1,192,-1,-1,194,196,-1,198,200,202,-1,204,-1,206,-1,208,210,212,-1,214,216,218,-1,-1,220,222,224,-1,226,228,230,232,-1,-1,-1,-1,-1,-1,-1,-1,-1,-1,-1,-1,-1,-1,-1,-1,-1,-1,-1,-1,-1,-1,-1,-1,-1,-1,-1,-1,-1,-1,-1,-1,-1,-1,-1,-1,-1,-1,-1,-1,-1,-1,-1,-1,-1,-1,-1,-1,-1,-1,-1,-1,-1,-1],"split_conditions":[2.00001E0,9.0026E4,2.00001E0,1.1795E4,2.00001E0,8.5224E4,2.00001E0,1.0016E4,2.00001E0,6.662046E4,9.8332E4,1.914E4,9.4546E4,2.00001E0,2.00001E0,2.601E3,1.104E4,4.19511E4,2.00001E0,2.00001E0,1.4157731E4,2.00001E0,2.00001E0,6.3899805E4,3.1810596E4,1.2499071E4,2.023E3,1.1795E4,2.00001E0,3.558861E4,7.733E3,2.00001E0,2.7469725E4,4.4020715E4,2.00001E0,1.5461536E4,2.00001E0,1.2165097E4,2.00001E0,1.5281119E4,2.00001E0,2.00001E0,2.00001E0,2.00001E0,9.0026E4,1.5213E4,2.00001E0,2.00001E0,1.592297E4,2.022E3,2.00001E0,3.6709348E4,2.3601E4,1.5699368E4,2.00001E0,1.9886723E4,5.060413E4,1.534358E4,2.00001E0,1.0179211E4,2.00001E0,1.5730224E4,2.00001E0,3.864477E4,3.5E1,2.3226E4,2.00001E0,2.7506469E4,9.0026E4,9.0026E4,2.00001E0,3.3881653E3,2.00001E0,3.5492773E3,1.7729348E4,1.1426734E4,4.473006E4,1.9047E4,3.8E1,8.842515E3,2.00001E0,1.2375798E4,2.00001E0,1.0279884E4,2.00001E0,1.6715783E4,2.00001E0,3.4E1,2.00001E0,1.9104E4,2.00001E0,4.3966668E4,2.00001E0,2.00001E0,2.550475E4,2.2033E4,1.6E1,9.0026E4,2.00001E0,1.1933963E4,2.00001E0,1.9217469E4,2.00001E0,2.00001E0,2.00001E0,1.3973264E4,9.0404E4,1.2763313E4,2.00001E0,1.874403E4,2.00001E0,1.77686E4,2.00001E0,2.00001E0,2.022E3,6.875723E3,2.00001E0,2.00001E0,2.00001E0,2.3320025E4,2.00001E0,3.994604E4,2.00001E0,5.1449443E3,1.8838643E4,3.7E1,2.00001E0,9.3721E4,2.00001E0,2.2033E4,9.5926E4,9.0026E4,2.00001E0,6.7989463E3,2.6260375E4,5.198221E3,2.00001E0,7.125611E3,2.00001E0,3.2357764E4,2.00001E0,5.154665E4,9.4062E4,1.6597684E4,2.00001E0,2.1137512E4,2.00001E0,1.786673E4,2.00001E0,8.558806E3,2.3076885E4,2.00001E0,2.00001E0,7.370094E3,2.00001E0,2.022E3,1.565E4,4.280745E3,2.00001E0,2.1624193E4,2.00001E0,4.496155E3,2.00001E0,1.0016E4,2.00001E0,1.9951969E4,4.806E4,9.0404E4,9.5204E4,1.1680125E4,7.1727803E3,3.7E1,2.00001E0,9.3721E4,8.463058E3,2.1502E4,2.00001E0,2.00001E0,2.00001E0,1.1322124E4,2.9676615E4,7.5002563E3,2.1382016E4,3.0644389E4,1.6938148E4,2.5670898E4,3.8299703E4,1.6674979E4,3.8382684E4,2.1485803E4,5.372351E4,1.989124E4,7.012413E4,1.72964E3,8.217895E3,2.9093933E3,1.4165505E4,5.859497E3,2.3233436E4,1.1385126E3,4.269321E3,1.4543326E4,9.641125E3,4.5643525E3,1.8009846E4,1.8974426E4,1.0933589E4,5.259581E3,1.9457693E4,7.3791787E3,9.00771E3,-6.624019E2,5.8154585E3,4.9764326E3,5.569103E3,1.4771976E4,8.364509E3,1.324752E4,9.704838E3,1.0256437E4,7.5076445E3,2.0223001E2,6.654481E3,9.866235E3,1.2091272E4,7.005137E3,4.7804756E3,2.3208479E4,8.046553E3,3.5733324E4,1.0544389E4,8.1005684E3,-3.0181714E2],"split_indices":[3084,3666,3083,3666,363,3666,3095,3666,571,0,3666,3666,3666,3003,3085,3666,3666,0,914,241,0,1714,1094,0,0,0,3667,3666,3218,0,3666,1851,0,0,2645,0,823,0,1923,0,2563,483,1923,1843,3666,3666,3304,530,0,3667,1864,0,3666,0,391,0,0,0,2519,0,1739,0,2575,0,3665,3666,365,0,3666,3666,3259,0,1728,0,0,0,0,3666,3665,0,441,0,2650,0,886,0,1589,3665,1873,3666,1480,0,363,2510,0,3666,3665,3666,3595,0,1712,0,1303,666,2619,0,3666,0,182,0,1360,0,2645,1364,3667,0,1863,1852,1288,0,1405,0,300,0,0,3665,2637,3666,2228,3666,3666,3666,3222,0,0,0,2862,0,182,0,2575,0,3666,0,3032,0,488,0,1714,0,0,1758,1733,0,1913,3667,3666,0,2316,0,2575,0,407,3666,2803,0,3666,3666,3666,0,0,3665,2104,3666,0,3666,363,1289,3262,0,0,0,0,0,0,0,0,0,0,0,0,0,0,0,0,0,0,0,0,0,0,0,0,0,0,0,0,0,0,0,0,0,0,0,0,0,0,0,0,0,0,0,0,0,0,0,0,0,0,0,0,0,0],"split_type":[0,0,0,0,0,0,0,0,0,0,0,0,0,0,0,0,0,0,0,0,0,0,0,0,0,0,0,0,0,0,0,0,0,0,0,0,0,0,0,0,0,0,0,0,0,0,0,0,0,0,0,0,0,0,0,0,0,0,0,0,0,0,0,0,0,0,0,0,0,0,0,0,0,0,0,0,0,0,0,0,0,0,0,0,0,0,0,0,0,0,0,0,0,0,0,0,0,0,0,0,0,0,0,0,0,0,0,0,0,0,0,0,0,0,0,0,0,0,0,0,0,0,0,0,0,0,0,0,0,0,0,0,0,0,0,0,0,0,0,0,0,0,0,0,0,0,0,0,0,0,0,0,0,0,0,0,0,0,0,0,0,0,0,0,0,0,0,0,0,0,0,0,0,0,0,0,0,0,0,0,0,0,0,0,0,0,0,0,0,0,0,0,0,0,0,0,0,0,0,0,0,0,0,0,0,0,0,0,0,0,0,0,0,0,0,0,0,0,0,0,0,0,0,0,0,0,0,0,0,0,0,0,0],"sum_hessian":[3.55326E5,7.07E2,3.54619E5,6.3E2,7.7E1,1.55E2,3.54464E5,1.01E2,5.29E2,3E0,7.4E1,1.36E2,1.9E1,7.7E1,3.54387E5,6.1E1,4E1,3E0,5.26E2,7.1E1,3E0,2.8E1,1.08E2,1.5E1,4E0,2E0,7.5E1,7.75E2,3.53612E5,1.7E1,4.4E1,1.9E1,2.1E1,2E0,5.24E2,3E0,6.8E1,1E0,2.7E1,3E0,1.05E2,4.4E1,3.1E1,1.23E2,6.52E2,2.35E2,3.53377E5,2.8E1,1.6E1,2E0,1.7E1,3E0,5.21E2,3E0,6.5E1,2E0,2.5E1,3E0,1.02E2,1E0,4.3E1,1E0,3E1,3E0,1.2E2,5.64E2,8.8E1,3E1,2.05E2,2.426E3,3.50951E5,1E0,2.7E1,1E0,1E0,1E0,1.6E1,8.7E1,4.34E2,1E0,6.4E1,2E0,1E2,1E0,4.2E1,1E0,2.9E1,4.8E1,7.2E1,8.4E1,4.8E2,3E0,8.5E1,1.76E2,2.9E1,2.106E3,3.2E2,1.584E3,3.49367E5,3E0,2.4E1,4.6E1,4.1E1,2.81E2,1.53E2,2E0,6.2E1,2E0,9.8E1,2E0,4E1,1E0,2.8E1,2E1,2.8E1,3E0,6.9E1,3.6E1,4.8E1,2E0,4.78E2,3E0,8.2E1,1E0,1.75E2,4.99E2,1.607E3,2.2E2,1E2,1.364E3,2.2E2,2.61E3,3.46757E5,1E0,2.3E1,1E0,4E1,3E0,2.78E2,3E0,1.5E2,6E0,5.6E1,3E0,9.5E1,2E0,3.8E1,1E0,2.7E1,2E0,1.8E1,1.2E1,1.6E1,3E0,6.6E1,2E0,3.4E1,1E0,4.7E1,3E0,4.75E2,2E0,8E1,3.78E2,1.21E2,1E0,1.606E3,1.21E2,9.9E1,3E0,9.7E1,2.8E2,1.084E3,1.47E2,7.3E1,2.215E3,3.95E2,7.83E2,3.45974E5,2E0,3.8E1,3E0,2.75E2,3E0,1.47E2,2.4E1,3.2E1,3E0,9.2E1,2E0,3.6E1,1E0,2.6E1,1E0,1.1E1,1E0,1.5E1,2E0,6.4E1,1E0,1E0,2E1,1.4E1,1E0,4.6E1,3E0,4.72E2,2E0,7.8E1,1.84E2,1.94E2,1E0,1.2E2,7.69E2,8.37E2,7E0,1.14E2,4.2E1,5.7E1,1.92E2,8.8E1,1E0,1.083E3,8.6E1,6.1E1,5.46E2,1.669E3,3E0,3.92E2,3E0,7.8E2,1.283E3,3.44691E5],"tree_param":{"num_deleted":"0","num_feature":"3668","num_nodes":"233","size_leaf_vector":"1"}},{"base_weights":[1.4313787E1,5.939119E4,-1.0423238E2,5.5617586E4,8.915727E4,1.0237963E5,-1.4933522E2,7.403486E4,5.1968188E4,5.199726E4,8.3247984E4,9.503737E4,1.4755519E5,1.3776867E5,-1.7969025E2,4.009591E4,7.074291E4,3.2742834E4,5.141486E4,9.158665E4,1.726627E4,1.1950079E5,8.765685E4,2.0500719E4,1.5711245E5,7.902055E4,1.30736195E5,1.0378496E5,-2.072732E2,5.667421E3,7.214676E4,3.5431785E4,5.091892E4,7.65449E4,1.1741766E5,7.9843037E3,1.21820016E5,8.673678E3,8.9019336E4,1.7343792E5,2.4362672E4,7.215889E4,1.2427408E5,9.619698E4,4.1053434E4,3.1304113E4,-2.9655466E2,1.8505818E4,7.309119E4,2.9981076E4,5.042657E4,1.1543329E5,1.809752E4,1.202059E4,1.29948484E5,1.00733955E4,1.2378229E5,1.042504E4,9.0228805E4,2.4798898E4,5.6067812E4,1.0060364E4,1.2629385E5,9.723938E3,9.7370625E4,2.9530898E4,4.0648465E4,3.5282137E4,-3.7487296E2,-3.601173E1,8.1600684E3,7.9362266E3,7.430883E4,2.8651645E4,4.996354E4,1.1246923E4,3.86158E4,4.6773545E3,1.369474E5,1.03849375E4,3.6821465E4,1.0613007E4,9.148514E4,1.1042717E5,1.448263E5,7.9385425E3,2.865894E4,3.9216273E4,2.6466883E4,4.2096258E4,7.6822637E3,3.3846074E4,7.243675E4,2.312741E4,-4.9124966E2,8.485874E3,7.552413E4,5.6148168E4,4.717572E4,1.620444E4,1.459299E5,4.0943394E3,9.212661E4,1.1780418E4,1.1286859E5,1.1232815E4,1.4717334E5,4.2552914E4,8.515424E3,1.3885729E4,2.6327842E4,2.0293135E4,1.1999799E4,5.060163E4,3.0473014E4,3.6126734E4,4.955764E4,2.1644006E4,3.4548195E4,2.7789902E4,-5.892203E2,2.8923638E3,7.616504E4,6.882548E4,5.1628117E4,3.647016E4,5.0982766E4,2.0795312E4,4.7702754E4,6.734643E4,9.609211E4,1.2616009E4,1.153408E5,1.1927744E4,1.4951844E5,4.0956496E4,1.7225605E4,2.380333E4,2.6976857E4,3.0162246E4,4.844927E4,2.9016227E4,4.3257086E4,3.591137E3,5.28368E4,2.9410828E4,1.9074348E4,3.7754023E4,8.1549233E3,3.7153316E4,2.552116E4,7.039005E4,-6.2659845E2,9.032093E3,2.265698E4,8.387915E3,2.0910848E4,1.6309575E4,1.08241E4,2.5771488E4,1.0096623E4,2.958505E3,1.5046166E4,1.1287319E4,2.2278928E4,1.1694683E4,2.8592846E4,8.689651E3,3.4187395E4,1.28633125E4,4.4426945E4,1.2534939E4,9.845442E3,6.574463E3,7.954545E3,1.970252E3,7.9030913E3,2.1069897E3,1.4364685E4,1.1220395E4,7.992296E3,2.1134078E4,1.1013108E4,1.6797066E4,6.2637246E3,9.178013E3,6.4489062E3,2.0810344E4,5.5513335E3,9.562659E3,1.326653E4,1.0246493E4,1.8274885E4,6.8001636E3,1.0262799E4,1.9203184E4,2.6879426E4,1.5235732E4,-1.9729791E2],"categories":[],"categories_nodes":[],"categories_segments":[],"categories_sizes":[],"default_left":[0,0,0,0,0,0,0,0,0,0,0,0,0,0,0,0,0,0,0,0,0,0,0,0,0,0,0,0,0,0,0,0,0,0,0,0,0,0,0,0,0,0,0,0,0,0,0,0,0,0,0,0,0,0,0,0,0,0,0,0,0,0,0,0,0,0,0,0,0,0,0,0,0,0,0,0,0,0,0,0,0,0,0,0,0,0,0,0,0,0,0,0,0,0,0,0,0,0,0,0,0,0,0,0,0,0,0,0,0,0,0,0,0,0,0,0,0,0,0,0,0,0,0,0,0,0,0,0,0,0,0,0,0,0,0,0,0,0,0,0,0,0,0,0,0,0,0,0,0,0,0,0,0,0,0,0,0,0,0,0,0,0,0,0,0,0,0,0,0,0,0,0,0,0,0,0,0,0,0,0,0,0,0,0,0,0,0,0,0,0,0,0,0,0,0,0,0,0,0],"id":3,"left_children":[1,3,5,7,9,11,13,15,17,-1,19,21,23,25,27,-1,29,-1,31,33,-1,35,37,-1,39,-1,41,43,45,-1,47,-1,49,51,53,-1,55,-1,57,59,-1,-1,61,63,-1,65,67,69,71,-1,73,75,-1,-1,77,-1,79,-1,81,-1,-1,-1,83,-1,85,87,89,91,93,-1,-1,-1,95,-1,97,-1,-1,-1,99,-1,-1,-1,101,103,105,-1,-1,107,109,111,-1,113,115,117,119,-1,121,123,125,-1,127,-1,129,-1,131,-1,133,135,-1,-1,137,-1,-1,139,141,-1,143,145,147,149,151,-1,153,155,157,159,161,-1,-1,163,165,-1,167,-1,169,171,-1,173,175,-1,177,179,181,-1,183,185,187,189,-1,191,193,195,197,-1,-1,-1,-1,-1,-1,-1,-1,-1,-1,-1,-1,-1,-1,-1,-1,-1,-1,-1,-1,-1,-1,-1,-1,-1,-1,-1,-1,-1,-1,-1,-1,-1,-1,-1,-1,-1,-1,-1,-1,-1,-1,-1,-1,-1,-1],"loss_changes":[2.501118E12,7.456765E10,1.6391803E12,3.8563217E10,2.600593E10,3.7720556E10,1.4839939E12,1.145104E10,1.181732E10,0E0,9.763684E9,1.4260634E10,3.8097715E9,3.7235196E10,1.01628235E12,0E0,5.7435095E9,0E0,1.2039225E10,1.1993612E10,0E0,2.879062E9,5.978456E9,0E0,6.0633907E9,0E0,2.624127E10,1.2532449E10,9.967767E11,0E0,3.5107635E9,0E0,8.151892E9,1.4025327E10,1.1882676E10,0E0,5.416223E8,0E0,3.631743E9,4.682416E9,0E0,0E0,9.095348E9,2.7512668E9,0E0,1.5385756E10,9.844565E11,5.2742106E8,3.247145E9,0E0,6.582698E9,6.3724503E9,0E0,0E0,9.775956E9,0E0,3.7843763E8,0E0,3.6657562E9,0E0,0E0,0E0,5.1786547E9,0E0,4.117627E8,2.4038408E10,2.1680128E9,3.8952894E10,9.641954E11,0E0,0E0,0E0,2.8215214E9,0E0,6.2995825E9,0E0,0E0,0E0,2.1791375E9,0E0,0E0,0E0,3.6822712E9,2.8239462E9,1.8463457E9,0E0,0E0,5.549228E9,6.3225856E8,1.3618872E9,0E0,4.0789606E10,2.655594E10,2.867993E10,9.7194135E11,0E0,2.949415E9,5.385781E9,1.2976062E10,0E0,3.750183E9,0E0,3.2569426E9,0E0,2.0990198E9,0E0,1.1436032E9,1.4676787E9,0E0,0E0,4.113367E8,0E0,0E0,9.007563E9,1.0403316E10,0E0,1.919361E9,3.0174413E10,3.1907185E9,2.4777196E10,9.274902E11,0E0,2.5399788E9,1.9569869E9,5.0824806E9,7.0306775E9,4.1316516E9,0E0,0E0,1.358463E9,3.5761684E9,0E0,1.4505738E9,0E0,7.326925E7,4.644864E8,0E0,2.2503424E7,9.230746E7,0E0,2.8050063E9,7.947616E9,7.3840886E9,0E0,1.4929633E9,4.786356E9,5.0638356E9,3.5602268E9,0E0,1.0492707E10,2.0525679E10,1.2824674E10,8.751334E11,0E0,0E0,0E0,0E0,0E0,0E0,0E0,0E0,0E0,0E0,0E0,0E0,0E0,0E0,0E0,0E0,0E0,0E0,0E0,0E0,0E0,0E0,0E0,0E0,0E0,0E0,0E0,0E0,0E0,0E0,0E0,0E0,0E0,0E0,0E0,0E0,0E0,0E0,0E0,0E0,0E0,0E0,0E0,0E0,0E0,0E0],"parents":[2147483647,0,0,1,1,2,2,3,3,4,4,5,5,6,6,7,7,8,8,10,10,11,11,12,12,13,13,14,14,16,16,18,18,19,19,21,21,22,22,24,24,26,26,27,27,28,28,30,30,32,32,33,33,34,34,36,36,38,38,39,39,42,42,43,43,45,45,46,46,47,47,48,48,50,50,51,51,54,54,56,56,58,58,62,62,64,64,65,65,66,66,67,67,68,68,72,72,74,74,78,78,82,82,83,83,84,84,87,87,88,88,89,89,91,91,92,92,93,93,94,94,96,96,97,97,98,98,100,100,102,102,104,104,106,106,107,107,110,110,113,113,114,114,116,116,117,117,118,118,119,119,120,120,122,122,123,123,124,124,125,125,126,126,129,129,130,130,132,132,134,134,135,135,137,137,138,138,140,140,141,141,142,142,144,144,145,145,146,146,147,147,149,149,150,150,151,151,152,152],"right_children":[2,4,6,8,10,12,14,16,18,-1,20,22,24,26,28,-1,30,-1,32,34,-1,36,38,-1,40,-1,42,44,46,-1,48,-1,50,52,54,-1,56,-1,58,60,-1,-1,62,64,-1,66,68,70,72,-1,74,76,-1,-1,78,-1,80,-1,82,-1,-1,-1,84,-1,86,88,90,92,94,-1,-1,-1,96,-1,98,-1,-1,-1,100,-1,-1,-1,102,104,106,-1,-1,108,110,112,-1,114,116,118,120,-1,122,124,126,-1,128,-1,130,-1,132,-1,134,136,-1,-1,138,-1,-1,140,142,-1,144,146,148,150,152,-1,154,156,158,160,162,-1,-1,164,166,-1,168,-1,170,172,-1,174,176,-1,178,180,182,-1,184,186,188,190,-1,192,194,196,198,-1,-1,-1,-1,-1,-1,-1,-1,-1,-1,-1,-1,-1,-1,-1,-1,-1,-1,-1,-1,-1,-1,-1,-1,-1,-1,-1,-1,-1,-1,-1,-1,-1,-1,-1,-1,-1,-1,-1,-1,-1,-1,-1,-1,-1,-1],"split_conditions":[2.00001E0,9.0026E4,2.00001E0,1.1795E4,2.00001E0,8.5224E4,2.00001E0,2.00001E0,2.00001E0,5.199726E4,9.5926E4,1.914E4,2.00001E0,2.00001E0,2.00001E0,4.009591E4,2.00001E0,3.2742834E4,2.00001E0,9.4062E4,1.726627E4,2.00001E0,2.00001E0,2.0500719E4,9.4546E4,7.902055E4,2.00001E0,8.5306E4,2.00001E0,5.667421E3,2.00001E0,3.5431785E4,2.00001E0,9.0404E4,2.00001E0,7.9843037E3,2.00001E0,8.673678E3,2.00001E0,2.00001E0,2.4362672E4,7.215889E4,2.00001E0,2.00001E0,4.1053434E4,9.0026E4,2.00001E0,2.022E3,2.00001E0,2.9981076E4,2.00001E0,2.00001E0,1.809752E4,1.202059E4,2.00001E0,1.00733955E4,2.00001E0,1.042504E4,2.00001E0,2.4798898E4,5.6067812E4,1.0060364E4,2.023E3,9.723938E3,2.00001E0,2.1502E4,9.8195E4,9.4062E4,2.00001E0,-3.601173E1,8.1600684E3,7.9362266E3,2.00001E0,2.8651645E4,3.1093E4,1.1246923E4,3.86158E4,4.6773545E3,2.00001E0,1.03849375E4,3.6821465E4,1.0613007E4,2.00001E0,2.00001E0,2.00001E0,7.9385425E3,2.865894E4,3.7E1,2.00001E0,2.00001E0,7.6822637E3,1.1795E4,9.4546E4,9.0026E4,2.00001E0,8.485874E3,2.00001E0,2.5E1,4.0202E4,1.620444E4,2.00001E0,4.0943394E3,1.3E1,1.1780418E4,2.00001E0,1.1232815E4,2.00001E0,2.0904E4,8.515424E3,1.3885729E4,1.3E1,2.0293135E4,1.1999799E4,2.00001E0,9.0026E4,3.6126734E4,2.00001E0,2.2033E4,9.5926E4,2.2033E4,2.00001E0,2.8923638E3,2.00001E0,2.00001E0,2.7804E4,2.00001E0,2.00001E0,2.0795312E4,4.7702754E4,2.022E3,2.00001E0,1.2616009E4,2.00001E0,1.1927744E4,2.00001E0,1.1795E4,1.7225605E4,8.0045E4,2.00001E0,3.0162246E4,2.00001E0,2.3226E4,9.0404E4,3.591137E3,9.8195E4,3.7E1,2.00001E0,9.3721E4,8.1549233E3,2.0678E4,8.9109E4,9.0026E4,2.00001E0,9.032093E3,2.265698E4,8.387915E3,2.0910848E4,1.6309575E4,1.08241E4,2.5771488E4,1.0096623E4,2.958505E3,1.5046166E4,1.1287319E4,2.2278928E4,1.1694683E4,2.8592846E4,8.689651E3,3.4187395E4,1.28633125E4,4.4426945E4,1.2534939E4,9.845442E3,6.574463E3,7.954545E3,1.970252E3,7.9030913E3,2.1069897E3,1.4364685E4,1.1220395E4,7.992296E3,2.1134078E4,1.1013108E4,1.6797066E4,6.2637246E3,9.178013E3,6.4489062E3,2.0810344E4,5.5513335E3,9.562659E3,1.326653E4,1.0246493E4,1.8274885E4,6.8001636E3,1.0262799E4,1.9203184E4,2.6879426E4,1.5235732E4,-1.9729791E2],"split_indices":[3084,3666,3083,3666,363,3666,3095,1843,571,0,3666,3666,204,2339,3093,0,1758,0,914,3666,0,540,772,0,3666,0,1480,3666,3097,0,1755,0,1480,3666,282,0,1736,0,2843,412,0,0,3003,642,0,3666,3085,3667,1761,0,2645,441,0,0,393,0,1714,0,1986,0,0,0,3667,0,2650,3666,3666,3666,3647,0,0,0,1883,0,3666,0,0,0,247,0,0,0,2578,1589,1739,0,0,3665,914,293,0,3666,3666,3666,3258,0,530,3665,3666,0,215,0,3665,0,1289,0,488,3666,0,0,3665,0,0,1843,3666,0,393,3666,3666,3666,3370,0,1735,746,3666,642,1601,0,0,3667,2501,0,483,0,2100,3666,0,3666,2630,0,1883,3666,3666,0,3666,3665,2637,3666,0,3666,3666,3666,3219,0,0,0,0,0,0,0,0,0,0,0,0,0,0,0,0,0,0,0,0,0,0,0,0,0,0,0,0,0,0,0,0,0,0,0,0,0,0,0,0,0,0,0,0,0,0],"split_type":[0,0,0,0,0,0,0,0,0,0,0,0,0,0,0,0,0,0,0,0,0,0,0,0,0,0,0,0,0,0,0,0,0,0,0,0,0,0,0,0,0,0,0,0,0,0,0,0,0,0,0,0,0,0,0,0,0,0,0,0,0,0,0,0,0,0,0,0,0,0,0,0,0,0,0,0,0,0,0,0,0,0,0,0,0,0,0,0,0,0,0,0,0,0,0,0,0,0,0,0,0,0,0,0,0,0,0,0,0,0,0,0,0,0,0,0,0,0,0,0,0,0,0,0,0,0,0,0,0,0,0,0,0,0,0,0,0,0,0,0,0,0,0,0,0,0,0,0,0,0,0,0,0,0,0,0,0,0,0,0,0,0,0,0,0,0,0,0,0,0,0,0,0,0,0,0,0,0,0,0,0,0,0,0,0,0,0,0,0,0,0,0,0,0,0,0,0,0,0],"sum_hessian":[3.55326E5,7.07E2,3.54619E5,6.3E2,7.7E1,1.55E2,3.54464E5,1.01E2,5.29E2,3E0,7.4E1,1.36E2,1.9E1,7.7E1,3.54387E5,3E0,9.8E1,3E0,5.26E2,5.3E1,2.1E1,2.8E1,1.08E2,3E0,1.6E1,2E0,7.5E1,9.3E1,3.54294E5,3E0,9.5E1,2E0,5.24E2,3.6E1,1.7E1,1E0,2.7E1,3E0,1.05E2,1.2E1,4E0,2E0,7.3E1,8E1,1.3E1,1E3,3.53294E5,2E0,9.3E1,3E0,5.21E2,8E0,2.8E1,3E0,1.4E1,1E0,2.6E1,3E0,1.02E2,3E0,9E0,2E0,7.1E1,2E0,7.8E1,8.44E2,1.56E2,7.75E2,3.52519E5,1E0,1E0,3E0,9E1,3E0,5.18E2,2E0,6E0,1E0,1.3E1,1E0,2.5E1,3E0,9.9E1,4.2E1,2.9E1,1E0,7.7E1,2E2,6.44E2,1.4E2,1.6E1,7.48E2,2.7E1,1.736E3,3.50783E5,3E0,8.7E1,1.55E2,3.63E2,2E0,1.1E1,1E0,9.8E1,2E0,4E1,1E0,2.8E1,1.48E2,5.2E1,2E0,6.42E2,3E0,1.37E2,1.23E2,6.25E2,7E0,2E1,1.539E3,1.97E2,1.21E3,3.49573E5,1E0,8.6E1,3.7E1,1.18E2,9.8E1,2.65E2,3E0,8E0,1.6E1,8.2E1,2E0,3.8E1,1E0,2.7E1,1.38E2,1E1,1.39E2,5.03E2,3E0,1.2E2,5.64E2,6.1E1,2E0,1.8E1,3.8E2,1.159E3,1.3E2,6.7E1,2.33E2,9.77E2,1.83E2,3.4939E5,3E0,8.3E1,3E0,3.4E1,9E1,2.8E1,2E0,9.6E1,3E0,2.62E2,5E0,1.1E1,3E0,7.9E1,1E0,3.7E1,1E0,2.6E1,1.06E2,3.2E1,1.05E2,3.4E1,1E0,5.02E2,2E0,1.18E2,8.4E1,4.8E2,8E0,5.3E1,1.5E1,3E0,2.98E2,8.2E1,1E0,1.158E3,8.1E1,4.9E1,2.17E2,1.6E1,7.91E2,1.86E2,1.53E2,3E1,3.14E2,3.49076E5],"tree_param":{"num_deleted":"0","num_feature":"3668","num_nodes":"199","size_leaf_vector":"1"}},{"base_weights":[1.5028348E1,4.282946E4,-7.045084E1,3.9882168E4,6.612319E4,7.433097E4,-1.031947E2,5.3395656E4,3.720621E4,4.0583863E4,6.137243E4,6.767227E4,1.0813413E5,1.0140944E5,-1.2553712E2,3.1294857E4,5.0693305E4,2.8518648E4,3.6793484E4,6.791859E4,4.2514914E4,8.6777375E4,6.175113E4,4.5236766E4,1.1179586E5,6.360276E4,9.549963E4,-6.720584E2,3.9827341E3,6.659141E4,4.6585266E4,2.5555781E4,3.6338434E4,5.597952E4,8.8686766E4,3.380246E4,6.011438E4,8.82232E3,8.985593E4,1.9307898E4,6.2810164E4,2.6990964E3,1.715985E4,1.600081E4,1.1793784E5,5.8079883E4,9.003541E4,4.0381094E4,-7.2580865E2,2.6491354E4,3.6538796E3,1.4466099E4,7.220294E4,3.560911E4,5.8357414E4,2.3400227E4,3.593459E4,8.719011E4,4.4363145E4,3.2057172E4,9.787554E4,8.843234E3,3.654081E4,2.8023735E3,1.9991227E4,1.2639655E4,9.388994E4,-1.0771372E3,8.252465E3,1.9474477E4,6.3926656E4,1.2813674E5,1.8658555E4,9.287114E4,4.241863E4,3.6180523E4,3.9461508E4,2.8007986E4,-7.9533124E2,4.636365E4,2.5561492E4,2.7479932E4,3.3460261E3,3.9614734E2,5.954472E3,1.0775273E4,2.2692408E4,3.090479E4,1.9627031E4,1.3874344E4,6.177384E4,2.5266816E4,3.5574727E4,9.052523E3,2.892875E4,3.5595402E4,5.3817832E4,1.0598322E4,2.866655E3,3.9929006E3,1.0291763E5,-1.0567328E2,3.9878545E3,1.06149795E4,1.1622634E4,6.8159346E3,9.594698E4,9.884363E2,6.9404185E3,1.4842677E4,6.478568E4,1.9355537E4,4.0424863E4,1.14934086E5,8.218854E4,2.942092E3,1.3720591E4,2.7933166E4,3.8807934E4,4.160004E4,2.6355584E4,2.854299E4,-8.603402E2,4.7164277E4,2.506276E4,3.4005254E4,2.6744693E4,1.0055676E5,3.3027087E3,2.836408E3,3.2324473E4,5.430557E3,-2.4716623E1,1.1744578E4,6.445002E4,2.4609469E4,3.522509E4,2.8153445E3,3.6557527E4,6.0050986E3,1.7099299E4,1.3042773E4,1.0892925E5,-5.84627E2,5.2446045E3,7.082261E3,2.8713035E4,5.578439E3,9.3749854E2,4.382359E3,6.567673E4,3.0854875E4,1.3402545E5,8.0974736E3,8.388381E4,3.0289604E4,3.822721E4,4.6487744E3,4.2395668E4,3.171268E4,2.5713086E4,3.7874086E4,2.6158508E4,2.103932E4,-9.398615E2,3.275628E4,2.4433527E4,3.681845E4,2.6119363E4,3.783343E4,2.0642338E4,3.0226732E4,3.1615269E3,3.4683934E4,5.6019346E3,4.1235693E3,1.032302E3,6.623226E3,6.787761E4,3.3686246E4,4.5080793E4,3.170898E3,1.097151E4,1.6230741E4,3.5292965E4,4.694265E3,6.657173E4,-1.4935859E3,1.2034538E4,1.2728787E4,1.4385214E5,7.257458E4,1.01966375E5,2.7332104E4,3.7576766E4,4.2461646E3,4.294588E4,8.177522E3,3.8327996E4,2.278993E4,2.6522887E4,4.0243895E4,3.0041748E4,2.5702495E3,2.6205727E4,3.1425225E4,2.013855E4,1.0843798E4,-1.0839658E3,3.349052E4,2.3934494E4,9.01577E4,2.5571262E4,3.1958912E4,2.2925988E4,3.1126889E4,3.0260496E3,4.3412495E3,1.0618245E4,8.828168E3,2.0764924E4,1.0489652E4,6.650503E3,2.3691549E4,1.1574035E4,1.2877559E4,2.03958E4,6.9299053E3,4.4273125E4,5.56943E3,2.1555834E4,3.5827453E4,1.9378455E4,2.6867053E4,1.0808925E4,1.2736319E4,4.303672E3,4.6212563E3,1.1645875E4,2.7030542E3,6.737483E3,2.7854062E3,7.7883745E3,3.9997175E3,1.1892475E4,2.4179976E3,9.096059E3,3.3094963E3,7.6874077E3,1.63152E4,8.753948E3,1.6691998E4,5.856927E3,5.17666E3,2.887899E3,1.4408798E4,-3.2720605E2,2.9341523E4,6.878955E3,3.7302938E4,1.0312924E4,2.5804172E4,7.326114E3,1.5852353E4,9.139072E3,1.8434465E3,6.779972E3,9.759012E3,6.0913066E3,9.439529E3,8.5109393E2],"categories":[],"categories_nodes":[],"categories_segments":[],"categories_sizes":[],"default_left":[0,0,0,0,0,0,0,0,0,0,0,0,0,0,0,0,0,0,0,0,0,0,0,0,0,0,0,0,0,0,0,0,0,0,0,0,0,0,0,0,0,0,0,0,0,0,0,0,0,0,0,0,0,0,0,0,0,0,0,0,0,0,0,0,0,0,0,0,0,0,0,0,0,0,0,0,0,0,0,0,0,0,0,0,0,0,0,0,0,0,0,0,0,0,0,0,0,0,0,0,0,0,0,0,0,0,0,0,0,0,0,0,0,0,0,0,0,0,0,0,0,0,0,0,0,0,0,0,0,0,0,0,0,0,0,0,0,0,0,0,0,0,0,0,0,0,0,0,0,0,0,0,0,0,0,0,0,0,0,0,0,0,0,0,0,0,0,0,0,0,0,0,0,0,0,0,0,0,0,0,0,0,0,0,0,0,0,0,0,0,0,0,0,0,0,0,0,0,0,0,0,0,0,0,0,0,0,0,0,0,0,0,0,0,0,0,0,0,0,0,0,0,0,0,0,0,0,0,0,0,0,0,0,0,0,0,0,0,0,0,0,0,0,0,0,0,0,0,0,0,0,0,0,0,0,0,0,0,0,0,0,0,0,0,0,0,0,0,0,0,0],"id":4,"left_children":[1,3,5,7,9,11,13,15,17,-1,19,21,23,25,27,-1,29,-1,31,33,35,37,39,41,43,-1,45,47,49,51,53,-1,55,57,59,61,63,-1,65,67,69,-1,-1,-1,71,-1,73,75,77,79,81,83,85,87,89,-1,91,93,95,97,99,101,103,-1,-1,-1,105,-1,-1,107,109,111,-1,113,115,-1,117,119,121,-1,123,125,127,-1,-1,-1,-1,129,-1,131,133,-1,135,-1,-1,137,139,-1,-1,-1,141,-1,-1,143,-1,-1,145,-1,-1,147,149,-1,-1,151,153,-1,-1,-1,155,157,159,161,163,-1,165,-1,167,169,171,-1,173,-1,-1,175,177,-1,179,-1,181,-1,-1,-1,183,-1,-1,-1,-1,-1,-1,-1,185,187,189,-1,191,-1,193,-1,195,197,199,201,203,205,207,-1,209,-1,211,-1,-1,213,215,217,-1,-1,-1,-1,219,221,223,-1,-1,-1,-1,-1,225,-1,-1,-1,227,229,231,-1,233,-1,235,-1,237,239,241,243,245,-1,247,249,251,253,255,-1,257,259,261,263,265,267,269,-1,-1,-1,-1,-1,-1,-1,-1,-1,-1,-1,-1,-1,-1,-1,-1,-1,-1,-1,-1,-1,-1,-1,-1,-1,-1,-1,-1,-1,-1,-1,-1,-1,-1,-1,-1,-1,-1,-1,-1,-1,-1,-1,-1,-1,-1,-1,-1,-1,-1,-1,-1,-1,-1],"loss_changes":[1.3004086E12,4.596944E10,8.639292E11,2.0831338E10,1.8372133E10,2.7795587E10,8.0395246E11,9.33557E9,9.591456E9,0E0,6.3707546E9,9.686876E9,4.702208E8,3.2677233E10,7.956951E11,0E0,3.363504E9,0E0,8.966832E9,8.424833E9,1.3413458E9,2.3474012E9,3.506864E9,9.0660454E8,1.2707758E9,0E0,2.4885985E10,6.902148E11,3.078954E11,4.2205594E9,8.517419E9,0E0,6.374359E9,9.546465E9,6.2288036E9,8.3876045E8,1.8302648E9,0E0,1.0280796E9,9.2120474E8,3.6902339E9,0E0,0E0,0E0,2.3305912E9,0E0,6.0527084E9,2.6429948E10,6.240314E11,6.943195E10,3.00721E11,2.037447E8,1.650688E8,4.585992E9,4.9179034E9,0E0,6.3960515E9,2.8440044E9,4.8832512E8,1.5362304E7,4.966482E9,1.3698384E8,8.1202176E8,0E0,0E0,0E0,1.2510003E9,0E0,0E0,1.9291123E8,3.2127058E9,1.5520563E8,0E0,6.8162683E9,3.9534285E8,0E0,1.1150885E10,1.5838085E10,5.943613E11,0E0,3.6265034E10,3.1004623E10,1.7016337E11,0E0,0E0,0E0,0E0,9.214853E8,0E0,2.6293626E8,3.929129E9,0E0,5.858001E9,0E0,0E0,9.818726E7,6.4250266E8,0E0,0E0,0E0,5.6623104E7,0E0,0E0,3.1220403E8,0E0,0E0,1.1924603E9,0E0,0E0,8.622906E7,3.3218888E9,0E0,0E0,2.7968406E10,2.3005102E9,0E0,0E0,0E0,1.1182473E10,9.63412E8,1.507885E9,1.4339408E10,5.415029E11,0E0,2.9785358E10,0E0,2.89251E10,6.400983E9,1.5374621E11,0E0,5.181399E8,0E0,0E0,8.113248E6,3.1940936E9,0E0,6.3375933E9,0E0,7.4752E5,0E0,0E0,0E0,7.9505E8,0E0,0E0,0E0,0E0,0E0,0E0,0E0,3.1526093E9,2.0554813E9,7.97773E9,0E0,2.4158208E9,0E0,1.0878714E10,0E0,5.583831E8,6.255329E8,8.347648E8,1.3524337E9,2.227241E8,9.891906E9,5.2608778E11,0E0,2.3849271E10,0E0,1.5876129E10,0E0,0E0,1.9356549E9,1.5244535E11,4.446126E8,0E0,0E0,0E0,0E0,1.336705E9,9.865495E9,1.0098369E10,0E0,0E0,0E0,0E0,0E0,3.4781266E9,0E0,0E0,0E0,8.906244E9,5.042176E8,3.5931914E9,0E0,1.0512957E10,0E0,5.721784E8,0E0,9.770598E7,2.2273229E8,4.5698253E8,5.1494912E8,5.5721984E8,0E0,2.030633E8,1.5734866E9,3.6947886E9,2.4834867E10,5.244308E11,0E0,1.7010721E10,3.7029233E9,1.5168799E10,1.03951565E9,2.9806592E7,3.7443994E9,1.380797E11,0E0,0E0,0E0,0E0,0E0,0E0,0E0,0E0,0E0,0E0,0E0,0E0,0E0,0E0,0E0,0E0,0E0,0E0,0E0,0E0,0E0,0E0,0E0,0E0,0E0,0E0,0E0,0E0,0E0,0E0,0E0,0E0,0E0,0E0,0E0,0E0,0E0,0E0,0E0,0E0,0E0,0E0,0E0,0E0,0E0,0E0,0E0,0E0,0E0,0E0,0E0,0E0,0E0,0E0],"parents":[2147483647,0,0,1,1,2,2,3,3,4,4,5,5,6,6,7,7,8,8,10,10,11,11,12,12,13,13,14,14,16,16,18,18,19,19,20,20,21,21,22,22,23,23,24,24,26,26,27,27,28,28,29,29,30,30,32,32,33,33,34,34,35,35,36,36,38,38,39,39,40,40,44,44,46,46,47,47,48,48,49,49,50,50,51,51,52,52,53,53,54,54,56,56,57,57,58,58,59,59,60,60,61,61,62,62,66,66,69,69,70,70,71,71,73,73,74,74,76,76,77,77,78,78,80,80,81,81,82,82,87,87,89,89,90,90,92,92,95,95,96,96,100,100,103,103,106,106,109,109,110,110,113,113,114,114,118,118,119,119,120,120,121,121,122,122,124,124,126,126,127,127,128,128,130,130,133,133,134,134,136,136,138,138,142,142,150,150,151,151,152,152,154,154,156,156,158,158,159,159,160,160,161,161,162,162,163,163,164,164,166,166,168,168,171,171,172,172,173,173,178,178,179,179,180,180,186,186,190,190,191,191,192,192,194,194,196,196,198,198,199,199,200,200,201,201,202,202,204,204,205,205,206,206,207,207,208,208,210,210,211,211,212,212,213,213,214,214,215,215,216,216],"right_children":[2,4,6,8,10,12,14,16,18,-1,20,22,24,26,28,-1,30,-1,32,34,36,38,40,42,44,-1,46,48,50,52,54,-1,56,58,60,62,64,-1,66,68,70,-1,-1,-1,72,-1,74,76,78,80,82,84,86,88,90,-1,92,94,96,98,100,102,104,-1,-1,-1,106,-1,-1,108,110,112,-1,114,116,-1,118,120,122,-1,124,126,128,-1,-1,-1,-1,130,-1,132,134,-1,136,-1,-1,138,140,-1,-1,-1,142,-1,-1,144,-1,-1,146,-1,-1,148,150,-1,-1,152,154,-1,-1,-1,156,158,160,162,164,-1,166,-1,168,170,172,-1,174,-1,-1,176,178,-1,180,-1,182,-1,-1,-1,184,-1,-1,-1,-1,-1,-1,-1,186,188,190,-1,192,-1,194,-1,196,198,200,202,204,206,208,-1,210,-1,212,-1,-1,214,216,218,-1,-1,-1,-1,220,222,224,-1,-1,-1,-1,-1,226,-1,-1,-1,228,230,232,-1,234,-1,236,-1,238,240,242,244,246,-1,248,250,252,254,256,-1,258,260,262,264,266,268,270,-1,-1,-1,-1,-1,-1,-1,-1,-1,-1,-1,-1,-1,-1,-1,-1,-1,-1,-1,-1,-1,-1,-1,-1,-1,-1,-1,-1,-1,-1,-1,-1,-1,-1,-1,-1,-1,-1,-1,-1,-1,-1,-1,-1,-1,-1,-1,-1,-1,-1,-1,-1,-1,-1],"split_conditions":[2.00001E0,9.0026E4,2.00001E0,1.1795E4,2.00001E0,7.8404E4,2.00001E0,2.00001E0,2.00001E0,4.0583863E4,9.5926E4,1.914E4,2.00001E0,2.00001E0,9.0026E4,3.1294857E4,2.601E3,2.8518648E4,2.00001E0,9.4062E4,2.023E3,2.00001E0,2.00001E0,2.022E3,2.00001E0,6.360276E4,2.00001E0,2.00001E0,2.00001E0,2.00001E0,1.0016E4,2.5555781E4,2.00001E0,9.0404E4,2.00001E0,2.00001E0,2.00001E0,8.82232E3,2.00001E0,2.022E3,2.00001E0,2.6990964E3,1.715985E4,1.600081E4,9.4546E4,5.8079883E4,9.4305E4,2.00001E0,2.00001E0,2.00001E0,2.00001E0,2.022E3,2.00001E0,2.00001E0,2.00001E0,2.3400227E4,2.00001E0,2.00001E0,9.2307E4,2.023E3,2.00001E0,2.022E3,2.00001E0,2.8023735E3,1.9991227E4,1.2639655E4,2.00001E0,-1.0771372E3,8.252465E3,2.022E3,2.00001E0,2.00001E0,1.8658555E4,1.8E1,2.022E3,3.6180523E4,2.00001E0,1.1235E4,2.00001E0,4.636365E4,2.00001E0,2.00001E0,2.00001E0,3.9614734E2,5.954472E3,1.0775273E4,2.2692408E4,3.82E3,1.9627031E4,2.023E3,2.00001E0,2.5266816E4,2.00001E0,9.052523E3,2.892875E4,2.00001E0,2.00001E0,1.0598322E4,2.866655E3,3.9929006E3,2.00001E0,-1.0567328E2,3.9878545E3,2.022E3,1.1622634E4,6.8159346E3,2.00001E0,9.884363E2,6.9404185E3,2.023E3,2.00001E0,1.9355537E4,4.0424863E4,2.022E3,2.00001E0,2.942092E3,1.3720591E4,2.7933166E4,2.00001E0,2.00001E0,2.2033E4,2.2033E4,2.00001E0,4.7164277E4,2.00001E0,3.4005254E4,2.00001E0,9.0404E4,2.00001E0,2.836408E3,8.244E3,5.430557E3,-2.4716623E1,2.023E3,2.00001E0,2.4609469E4,7.703E4,2.8153445E3,2.00001E0,6.0050986E3,1.7099299E4,1.3042773E4,2.00001E0,-5.84627E2,5.2446045E3,7.082261E3,2.8713035E4,5.578439E3,9.3749854E2,4.382359E3,2.00001E0,2.00001E0,2.00001E0,8.0974736E3,4E1,3.0289604E4,2.00001E0,4.6487744E3,2.00001E0,1.9104E4,1.3E1,3.7E1,2.00001E0,1.1235E4,2.00001E0,3.275628E4,2.00001E0,3.681845E4,2.00001E0,3.783343E4,2.0642338E4,9.7477E4,2.00001E0,2.00001E0,5.6019346E3,4.1235693E3,1.032302E3,6.623226E3,2.00001E0,6.4804E4,7.7325E4,3.170898E3,1.097151E4,1.6230741E4,3.5292965E4,4.694265E3,1.3E1,-1.4935859E3,1.2034538E4,1.2728787E4,2.00001E0,2.00001E0,5.7701E4,2.7332104E4,2.00001E0,4.2461646E3,3.7E1,8.177522E3,2.00001E0,2.00001E0,2.00001E0,2.00001E0,2.00001E0,2.5702495E3,2.00001E0,2.00001E0,2.00001E0,1.1795E4,2.00001E0,3.349052E4,2.00001E0,2.022E3,2.00001E0,2.00001E0,2.00001E0,8E0,2.00001E0,4.3412495E3,1.0618245E4,8.828168E3,2.0764924E4,1.0489652E4,6.650503E3,2.3691549E4,1.1574035E4,1.2877559E4,2.03958E4,6.9299053E3,4.4273125E4,5.56943E3,2.1555834E4,3.5827453E4,1.9378455E4,2.6867053E4,1.0808925E4,1.2736319E4,4.303672E3,4.6212563E3,1.1645875E4,2.7030542E3,6.737483E3,2.7854062E3,7.7883745E3,3.9997175E3,1.1892475E4,2.4179976E3,9.096059E3,3.3094963E3,7.6874077E3,1.63152E4,8.753948E3,1.6691998E4,5.856927E3,5.17666E3,2.887899E3,1.4408798E4,-3.2720605E2,2.9341523E4,6.878955E3,3.7302938E4,1.0312924E4,2.5804172E4,7.326114E3,1.5852353E4,9.139072E3,1.8434465E3,6.779972E3,9.759012E3,6.0913066E3,9.439529E3,8.5109393E2],"split_indices":[3084,3666,3083,3666,363,3666,3095,1843,914,0,3666,3666,124,2339,3666,0,3666,0,571,3666,3667,1923,1094,3667,204,0,1480,1289,363,1383,3666,0,1480,3666,282,2228,823,0,1360,3667,2563,0,0,0,3666,0,3666,3086,3234,3086,365,3667,1364,3652,1873,0,736,441,3666,3667,393,3667,2911,0,0,0,540,0,0,3667,1622,412,0,3665,3667,0,3222,3666,3236,0,3088,3096,3086,0,0,0,0,3666,0,3667,1812,0,2312,0,0,295,202,0,0,0,247,0,0,3667,0,0,1377,0,0,3667,2519,0,0,3667,3003,0,0,0,3260,1713,3666,3666,3371,0,3093,0,3088,3666,3099,0,3666,0,0,3667,1883,0,3666,0,400,0,0,0,215,0,0,0,0,0,0,0,2650,14,488,0,3665,0,3494,0,1712,3666,3665,3665,28,3666,3584,0,3184,0,3085,0,0,3666,3215,1728,0,0,0,0,1880,3666,3666,0,0,0,0,0,3665,0,0,0,886,1815,3666,0,3495,0,3665,0,2316,42,1071,1712,2328,0,962,1350,3061,3666,3218,0,3096,3667,3373,209,2904,3665,3262,0,0,0,0,0,0,0,0,0,0,0,0,0,0,0,0,0,0,0,0,0,0,0,0,0,0,0,0,0,0,0,0,0,0,0,0,0,0,0,0,0,0,0,0,0,0,0,0,0,0,0,0,0,0],"split_type":[0,0,0,0,0,0,0,0,0,0,0,0,0,0,0,0,0,0,0,0,0,0,0,0,0,0,0,0,0,0,0,0,0,0,0,0,0,0,0,0,0,0,0,0,0,0,0,0,0,0,0,0,0,0,0,0,0,0,0,0,0,0,0,0,0,0,0,0,0,0,0,0,0,0,0,0,0,0,0,0,0,0,0,0,0,0,0,0,0,0,0,0,0,0,0,0,0,0,0,0,0,0,0,0,0,0,0,0,0,0,0,0,0,0,0,0,0,0,0,0,0,0,0,0,0,0,0,0,0,0,0,0,0,0,0,0,0,0,0,0,0,0,0,0,0,0,0,0,0,0,0,0,0,0,0,0,0,0,0,0,0,0,0,0,0,0,0,0,0,0,0,0,0,0,0,0,0,0,0,0,0,0,0,0,0,0,0,0,0,0,0,0,0,0,0,0,0,0,0,0,0,0,0,0,0,0,0,0,0,0,0,0,0,0,0,0,0,0,0,0,0,0,0,0,0,0,0,0,0,0,0,0,0,0,0,0,0,0,0,0,0,0,0,0,0,0,0,0,0,0,0,0,0,0,0,0,0,0,0,0,0,0,0,0,0,0,0,0,0,0,0],"sum_hessian":[3.55326E5,7.07E2,3.54619E5,6.3E2,7.7E1,1.55E2,3.54464E5,1.01E2,5.29E2,3E0,7.4E1,1.32E2,2.3E1,7.7E1,3.54387E5,3E0,9.8E1,2E0,5.27E2,5.3E1,2.1E1,2.8E1,1.04E2,2E0,2.1E1,2E0,7.5E1,3.12779E5,4.1608E4,1.7E1,8.1E1,3E0,5.24E2,3.6E1,1.7E1,1.6E1,5E0,2E0,2.6E1,3E0,1.01E2,1E0,1E0,3E0,1.8E1,2E0,7.3E1,4.08E2,3.12371E5,5.98E2,4.101E4,2E0,1.5E1,4.4E1,3.7E1,3E0,5.21E2,8E0,2.8E1,3E0,1.4E1,2E0,1.4E1,1E0,4E0,3E0,2.3E1,1E0,2E0,3E0,9.8E1,1.4E1,4E0,6.8E1,5E0,3E0,4.05E2,7.53E2,3.11618E5,3E0,5.95E2,5.22E2,4.0488E4,1E0,1E0,3E0,1.2E1,4E1,4E0,3E0,3.4E1,2E0,5.19E2,2E0,6E0,1.7E1,1.1E1,2E0,1E0,1E0,1.3E1,1E0,1E0,2E0,1.2E1,1E0,2.2E1,1E0,2E0,2E0,9.6E1,3E0,1.1E1,1.9E1,4.9E1,1E0,4E0,3E0,4.02E2,7.9E1,6.74E2,6.88E2,3.1093E5,1E0,5.94E2,3E0,5.19E2,1.7E1,4.0471E4,3E0,3.7E1,2E0,1E0,2E0,3.2E1,2E0,5.17E2,1E0,1.6E1,2E0,9E0,2E0,1.1E1,1E0,1E0,1E0,2.1E1,1E0,1E0,2E0,9.4E1,4E0,1.5E1,2E0,4.7E1,2E0,4E2,3E0,7.6E1,6.7E1,6.07E2,1.37E2,5.51E2,1.124E3,3.09806E5,3E0,5.91E2,2E0,5.17E2,7E0,1E1,2.1E2,4.0261E4,3E1,7E0,1E0,1E0,3E0,2.9E1,4.51E2,6.6E1,1E0,1.5E1,3E0,8E0,2E0,9.2E1,1E0,3E0,2E0,1.3E1,3.2E1,1.5E1,3E0,3.97E2,2E0,7.4E1,4.6E1,2.1E1,1.38E2,4.69E2,1.02E2,3.5E1,2E0,5.49E2,8.7E1,1.037E3,3.742E3,3.06064E5,2E0,5.89E2,3E0,5.14E2,1.67E2,4.3E1,1.93E2,4.0068E4,3E0,2.7E1,3E0,2.6E1,3.75E2,7.6E1,7E0,5.9E1,1.3E1,7.9E1,1E0,1.2E1,1E0,3.1E1,8E0,7E0,3E0,3.94E2,7.2E1,2E0,2E0,1.9E1,3E0,1.35E2,3E0,4.66E2,2E0,1E2,2E0,3.3E1,3E0,5.46E2,3E0,8.4E1,2E0,1.035E3,4.65E2,3.277E3,2.06E2,3.05858E5,2E0,5.87E2,1E0,2E0,3E0,5.11E2,3E0,1.64E2,1E0,4.2E1,1.57E2,3.6E1,1.6E2,3.9908E4],"tree_param":{"num_deleted":"0","num_feature":"3668","num_nodes":"271","size_leaf_vector":"1"}},{"base_weights":[1.6079182E1,1.1150124E5,-1.4937923E0,1.2360202E4,3.315465E4,3.1119957E4,-6.3637505E1,2.8749875E4,4.9894332E4,7.8863586E4,-8.657203E1,3.9346133E4,2.6656352E4,3.1675701E4,4.611777E4,7.412073E4,2.8075787E4,6.90463E4,-1.113501E2,2.4425633E4,3.7166363E4,2.2954342E4,2.6311688E4,2.8155586E4,4.34277E4,2.5186773E4,1.8743068E4,7.692855E4,5.349432E4,1.5655857E4,-2.2009038E2,2.0927148E3,3.8029875E4,2.2211246E4,2.5978885E4,2.230331E4,4.093419E4,8.974144E3,7.8908E4,3.9852383E3,5.4077883E4,1.4719097E4,2.175585E4,2.036014E4,-3.0346948E2,4.9314445E4,3.4977316E4,2.0213043E4,2.5599682E4,2.2103994E4,3.88061E4,8.945436E3,8.043417E4,7.5500317E3,1.6238233E4,1.9006086E4,1.3376924E4,2.326315E4,1.5913781E4,2.6705375E4,1.8833477E4,5.0490266E4,-3.3711252E2,1.23492295E4,1.5559123E4,2.7330014E4,4.250914E4,1.9946287E4,2.5223113E4,1.9869709E4,3.6419188E4,3.618682E4,7.691642E4,2.0414137E4,1.4476113E4,1.7109082E4,1.3312492E4,1.3373026E4,2.2811209E4,1.7985455E4,4.0560747E3,2.543508E4,4.0737703E4,1.786424E4,2.2208766E4,4.726848E4,7.227512E4,1.8809596E4,-4.2414777E2,3.3817874E2,5.083135E3,2.3448816E4,1.50316875E4,1.1165242E4,4.4876754E4,7.241038E4,2.4901135E4,1.5057367E4,3.720996E4,9.020677E4,6.79278E4,1.9611223E4,2.6389633E4,1.2832156E4,1.9305627E4,1.3173817E4,1.8550162E4,1.0821692E4,2.2251E4,2.416468E3,5.482508E3,2.7416607E4,5.8132812E3,1.506448E4,8.310767E3,1.1020991E4,1.77557E4,2.3525695E4,1.7179402E4,5.793414E4,4.1787418E4,2.2522287E4,1.034715E4,2.5730504E4,1.8152715E4,1.893401E4,-5.1125705E2,2.2138167E3,7.197912E3,4.370993E3,-2.1099445E1,2.9342646E3,1.3663179E4,6.019927E3,2.5768242E4,1.9155521E4,7.1814067E3,-4.9907684E2,6.208439E3,1.752987E3,1.1011171E4,6.741796E3,2.6917203E4,5.715832E3,2.0063873E4,1.4745491E3,5.773345E3,8.53128E3,3.8131013E3,-4.8871793E2,3.806438E3,6.4180034E3,3.230587E3,3.8048972E3,5.10923E3,1.1204453E3,5.5129136E3,5.7481016E3,7.1427554E3,3.1981475E3,8.0862456E3,4.692237E3,5.322352E3,-1.3078876E3,6.9336636E3,5.4142505E3,3.7234238E3,4.8300264E3,1.7065934E4,4.754208E3,1.2359733E4,1.9962964E3,7.6411167E3,4.9945854E3,6.929265E3,7.436188E3,5.051007E3,4.1834814E3,-1.82468E2],"categories":[],"categories_nodes":[],"categories_segments":[],"categories_sizes":[],"default_left":[0,0,0,0,0,0,0,0,0,0,0,0,0,0,0,0,0,0,0,0,0,0,0,0,0,0,0,0,0,0,0,0,0,0,0,0,0,0,0,0,0,0,0,0,0,0,0,0,0,0,0,0,0,0,0,0,0,0,0,0,0,0,0,0,0,0,0,0,0,0,0,0,0,0,0,0,0,0,0,0,0,0,0,0,0,0,0,0,0,0,0,0,0,0,0,0,0,0,0,0,0,0,0,0,0,0,0,0,0,0,0,0,0,0,0,0,0,0,0,0,0,0,0,0,0,0,0,0,0,0,0,0,0,0,0,0,0,0,0,0,0,0,0,0,0,0,0,0,0,0,0,0,0,0,0,0,0,0,0,0,0,0,0,0,0,0,0,0,0,0,0,0,0,0,0,0,0,0,0],"id":5,"left_children":[1,3,5,-1,-1,7,9,11,13,15,17,19,21,-1,23,25,-1,27,29,-1,31,-1,33,-1,35,-1,-1,37,39,41,43,-1,45,-1,47,-1,49,-1,51,-1,53,55,57,59,61,63,65,-1,67,-1,69,-1,71,-1,-1,73,75,77,79,81,83,85,87,89,-1,91,93,-1,95,-1,97,-1,99,101,103,-1,105,-1,107,109,-1,111,113,115,117,119,121,123,125,-1,-1,127,-1,129,131,133,135,137,139,141,143,145,147,149,151,153,155,-1,157,-1,-1,159,-1,-1,-1,-1,161,163,165,167,169,-1,-1,171,173,175,177,-1,-1,-1,-1,-1,-1,-1,-1,-1,-1,-1,-1,-1,-1,-1,-1,-1,-1,-1,-1,-1,-1,-1,-1,-1,-1,-1,-1,-1,-1,-1,-1,-1,-1,-1,-1,-1,-1,-1,-1,-1,-1,-1,-1,-1,-1,-1,-1,-1,-1,-1,-1],"loss_changes":[6.961305E11,2.1335245E9,6.8709895E11,0E0,0E0,3.0069228E10,6.418256E11,1.2948996E10,1.2193022E10,1.227096E9,6.071955E11,6.706004E9,7.3941975E9,0E0,5.927174E9,4.7161016E9,0E0,1.1453006E10,6.07525E11,0E0,2.2940467E9,0E0,6.740738E9,0E0,2.8472443E9,0E0,0E0,5.089919E9,3.3407795E8,1.3548192E10,6.038718E11,0E0,1.5820063E9,0E0,6.8260004E9,0E0,2.222162E9,0E0,3.2963297E9,0E0,3.5773645E8,1.1869192E10,2.4564204E9,1.3252624E10,5.989572E11,1.904386E9,3.3884815E9,0E0,6.6617016E9,0E0,2.2483517E9,0E0,1.890091E9,0E0,0E0,2.8936765E9,3.8925763E9,1.5224095E9,4.446003E7,3.830104E9,3.3588838E9,1.286688E10,5.8369645E11,1.484782E8,0E0,2.712955E9,2.31893E9,0E0,6.0974367E9,0E0,5.377229E8,0E0,2.4737219E9,1.3008404E9,7.208878E8,0E0,9.228452E8,0E0,1.1610767E9,7.076045E7,0E0,2.2487695E9,1.3205504E9,1.2584223E9,1.2649185E9,9.563177E9,2.1175992E9,6.738608E9,5.879749E11,0E0,0E0,5.05344E8,0E0,1.705272E8,1.7377198E9,6.20716E8,6.0252815E9,4.4893587E8,5.752668E8,9.6455885E8,8.858829E7,4.6934426E8,1.1692892E9,2.587648E8,3.8697574E8,9.360179E8,9.247539E7,0E0,8.875786E8,0E0,0E0,3.440804E8,0E0,0E0,0E0,0E0,3.7083546E8,1.019306E9,9.417728E7,8.604877E7,8.903885E8,0E0,0E0,7.870792E8,8.3074744E9,1.6505176E10,5.7668436E11,0E0,0E0,0E0,0E0,0E0,0E0,0E0,0E0,0E0,0E0,0E0,0E0,0E0,0E0,0E0,0E0,0E0,0E0,0E0,0E0,0E0,0E0,0E0,0E0,0E0,0E0,0E0,0E0,0E0,0E0,0E0,0E0,0E0,0E0,0E0,0E0,0E0,0E0,0E0,0E0,0E0,0E0,0E0,0E0,0E0,0E0,0E0,0E0,0E0,0E0,0E0,0E0],"parents":[2147483647,0,0,1,1,2,2,5,5,6,6,7,7,8,8,9,9,10,10,11,11,12,12,14,14,15,15,17,17,18,18,20,20,22,22,24,24,27,27,28,28,29,29,30,30,32,32,34,34,36,36,38,38,40,40,41,41,42,42,43,43,44,44,45,45,46,46,48,48,50,50,52,52,55,55,56,56,57,57,58,58,59,59,60,60,61,61,62,62,63,63,65,65,66,66,68,68,70,70,72,72,73,73,74,74,76,76,78,78,79,79,81,81,82,82,83,83,84,84,85,85,86,86,87,87,88,88,91,91,93,93,94,94,95,95,96,96,97,97,98,98,99,99,100,100,101,101,102,102,103,103,104,104,105,105,106,106,108,108,111,111,116,116,117,117,118,118,119,119,120,120,123,123,124,124,125,125,126,126],"right_children":[2,4,6,-1,-1,8,10,12,14,16,18,20,22,-1,24,26,-1,28,30,-1,32,-1,34,-1,36,-1,-1,38,40,42,44,-1,46,-1,48,-1,50,-1,52,-1,54,56,58,60,62,64,66,-1,68,-1,70,-1,72,-1,-1,74,76,78,80,82,84,86,88,90,-1,92,94,-1,96,-1,98,-1,100,102,104,-1,106,-1,108,110,-1,112,114,116,118,120,122,124,126,-1,-1,128,-1,130,132,134,136,138,140,142,144,146,148,150,152,154,156,-1,158,-1,-1,160,-1,-1,-1,-1,162,164,166,168,170,-1,-1,172,174,176,178,-1,-1,-1,-1,-1,-1,-1,-1,-1,-1,-1,-1,-1,-1,-1,-1,-1,-1,-1,-1,-1,-1,-1,-1,-1,-1,-1,-1,-1,-1,-1,-1,-1,-1,-1,-1,-1,-1,-1,-1,-1,-1,-1,-1,-1,-1,-1,-1,-1,-1,-1,-1],"split_conditions":[2.00001E0,2.00001E0,2.00001E0,1.2360202E4,3.315465E4,9.0026E4,2.00001E0,1.1795E4,2.00001E0,8.9149E4,2.00001E0,2.00001E0,2.00001E0,3.1675701E4,2.00001E0,2.1204E4,2.8075787E4,3.7E1,2.00001E0,2.4425633E4,2.00001E0,2.2954342E4,2.00001E0,2.8155586E4,2.00001E0,2.5186773E4,1.8743068E4,5E0,2.00001E0,9.0026E4,2.00001E0,2.0927148E3,2.601E3,2.2211246E4,2.00001E0,2.230331E4,2.00001E0,8.974144E3,2.00001E0,3.9852383E3,2.00001E0,2.2033E4,4.2E1,2.2033E4,2.00001E0,2.00001E0,1.0016E4,2.0213043E4,2.00001E0,2.2103994E4,2.00001E0,8.945436E3,2.00001E0,7.5500317E3,1.6238233E4,3.7E1,2.00001E0,2.00001E0,9.8332E4,2.1133E4,8.5306E4,8.5306E4,2.00001E0,2.022E3,1.5559123E4,2.00001E0,2.00001E0,1.9946287E4,2.00001E0,1.9869709E4,2.00001E0,3.618682E4,3.3176E4,2.1133E4,1.9104E4,1.7109082E4,5.5E1,1.3373026E4,9.0404E4,2.00001E0,4.0560747E3,3.7E1,2.1237E4,2.00001E0,3.6E1,2.1502E4,8E0,1.1795E4,2.00001E0,3.3817874E2,5.083135E3,3.82E3,1.50316875E4,2.023E3,2.00001E0,2.023E3,2.00001E0,2.022E3,2.00001E0,2.00001E0,2.00001E0,2.00001E0,2.00001E0,2.00001E0,1.946E4,8.5712E4,2.00001E0,1.0821692E4,9.3721E4,2.416468E3,5.482508E3,2.00001E0,5.8132812E3,1.506448E4,8.310767E3,1.1020991E4,1.3E1,2.00001E0,9.8332E4,2.00001E0,2.00001E0,2.2522287E4,1.034715E4,2.00001E0,8.9109E4,2.2033E4,2.00001E0,2.2138167E3,7.197912E3,4.370993E3,-2.1099445E1,2.9342646E3,1.3663179E4,6.019927E3,2.5768242E4,1.9155521E4,7.1814067E3,-4.9907684E2,6.208439E3,1.752987E3,1.1011171E4,6.741796E3,2.6917203E4,5.715832E3,2.0063873E4,1.4745491E3,5.773345E3,8.53128E3,3.8131013E3,-4.8871793E2,3.806438E3,6.4180034E3,3.230587E3,3.8048972E3,5.10923E3,1.1204453E3,5.5129136E3,5.7481016E3,7.1427554E3,3.1981475E3,8.0862456E3,4.692237E3,5.322352E3,-1.3078876E3,6.9336636E3,5.4142505E3,3.7234238E3,4.8300264E3,1.7065934E4,4.754208E3,1.2359733E4,1.9962964E3,7.6411167E3,4.9945854E3,6.929265E3,7.436188E3,5.051007E3,4.1834814E3,-1.82468E2],"split_indices":[3088,1403,3084,0,0,3666,3096,3666,363,3666,3086,1843,914,0,425,3666,0,3665,3304,0,1758,0,1405,0,365,0,0,3665,2563,3666,3099,0,3666,0,886,0,293,0,772,0,2504,3666,3665,3666,3570,1383,3666,0,571,0,406,0,363,0,0,3665,2637,209,3666,3666,3666,3666,3259,3667,0,3652,1873,0,1430,0,2911,0,3666,3666,3666,0,3665,0,3666,2925,0,3665,3666,914,3665,3666,3665,3666,3215,0,0,3666,0,3667,1812,3667,2575,3667,372,642,1094,1828,3652,2803,3666,3666,2970,0,3666,0,0,1886,0,0,0,0,3665,389,3666,2804,2720,0,0,2804,3666,3666,3595,0,0,0,0,0,0,0,0,0,0,0,0,0,0,0,0,0,0,0,0,0,0,0,0,0,0,0,0,0,0,0,0,0,0,0,0,0,0,0,0,0,0,0,0,0,0,0,0,0,0,0,0],"split_type":[0,0,0,0,0,0,0,0,0,0,0,0,0,0,0,0,0,0,0,0,0,0,0,0,0,0,0,0,0,0,0,0,0,0,0,0,0,0,0,0,0,0,0,0,0,0,0,0,0,0,0,0,0,0,0,0,0,0,0,0,0,0,0,0,0,0,0,0,0,0,0,0,0,0,0,0,0,0,0,0,0,0,0,0,0,0,0,0,0,0,0,0,0,0,0,0,0,0,0,0,0,0,0,0,0,0,0,0,0,0,0,0,0,0,0,0,0,0,0,0,0,0,0,0,0,0,0,0,0,0,0,0,0,0,0,0,0,0,0,0,0,0,0,0,0,0,0,0,0,0,0,0,0,0,0,0,0,0,0,0,0,0,0,0,0,0,0,0,0,0,0,0,0,0,0,0,0,0,0],"sum_hessian":[3.55326E5,5.5E1,3.55271E5,2E0,5.3E1,7.07E2,3.54564E5,6.3E2,7.7E1,1.02E2,3.54462E5,1.01E2,5.29E2,3E0,7.4E1,8.4E1,1.8E1,1.26E2,3.54336E5,3E0,9.8E1,2E0,5.27E2,2E0,7.2E1,3.5E1,4.9E1,8.1E1,4.5E1,2.426E3,3.5191E5,3E0,9.5E1,2E0,5.25E2,3E0,6.9E1,4E0,7.7E1,1E0,4.4E1,2.106E3,3.2E2,1.419E3,3.50491E5,1.7E1,7.8E1,3E0,5.22E2,2E0,6.7E1,3E0,7.4E1,3E0,4.1E1,4.99E2,1.607E3,2.52E2,6.8E1,2.72E2,1.147E3,2.31E2,3.5026E5,2E0,1.5E1,4.1E1,3.7E1,3E0,5.19E2,3E0,6.4E1,3E0,7.1E1,3.78E2,1.21E2,1E0,1.606E3,3E0,2.49E2,3E1,3.8E1,2.52E2,2E1,8.96E2,2.51E2,2.04E2,2.7E1,1.584E3,3.48676E5,1E0,1E0,3.7E1,4E0,3E0,3.4E1,2E0,5.17E2,3E0,6.1E1,2.5E1,4.6E1,3.37E2,4.1E1,9.3E1,2.8E1,1.568E3,3.8E1,7E0,2.42E2,3E0,2.7E1,1.83E2,6.9E1,9E0,1.1E1,3E0,8.93E2,1.96E2,5.5E1,6.6E1,1.38E2,2.3E1,4E0,1.34E2,1.45E3,1.561E3,3.47115E5,3E0,3.4E1,2E0,1E0,2E0,3.2E1,1E0,1E0,3E0,5.14E2,1E0,2E0,1E0,6E1,1E0,2.4E1,1E0,4.5E1,3E0,3.34E2,3.3E1,8E0,1E0,9.2E1,2E1,8E0,1.511E3,5.7E1,1E0,3.7E1,1.14E2,1.28E2,3E0,1.8E2,1.86E2,7.07E2,1E0,1.95E2,4E1,1.5E1,1E0,6.5E1,3E0,1.35E2,3E0,1.31E2,1.215E3,2.35E2,3.18E2,1.243E3,2.61E3,3.44505E5],"tree_param":{"num_deleted":"0","num_feature":"3668","num_nodes":"179","size_leaf_vector":"1"}},{"base_weights":[1.4013579E1,2.0766078E4,-6.1482613E1,4.1924586E4,2.0464197E4,2.7575385E4,-1.17722664E2,1.9316959E4,2.6670652E4,2.4591691E4,2.730073E4,2.6275672E4,-1.7641774E2,2.628766E4,1.7953545E4,2.9517492E4,2.0663887E4,2.6009557E4,3.578958E4,2.4135744E4,3.944655E4,2.254098E4,-2.4110455E2,3.0627742E4,2.2264771E4,1.2247699E4,1.782892E4,7.3251187E3,9.920108E3,1.3900884E3,6.0971396E3,3.2734281E4,2.3222146E4,4.106609E4,8.51662E3,3.1580264E4,2.1457469E4,4.5217766E4,2.9300889E4,2.8374713E4,2.1048943E4,2.3760979E4,-3.0264224E2,8.175923E3,1.0629125E4,2.6407498E4,1.9408057E4,1.3235887E4,1.7718889E4,3.499767E4,2.6912734E4,7.794653E1,2.3378703E4,3.176824E3,4.2120727E4,2.1841885E4,3.0409107E4,2.0650508E4,2.527264E4,3.813862E4,5.2208426E4,3.3043713E3,2.9919143E4,3.0721678E4,2.1241273E4,1.928915E4,2.8144594E4,2.2343104E4,3.4270023E4,2.5401086E4,-3.5965204E2,6.317387E3,8.934221E3,2.1859001E3,1.9690977E4,1.7239312E4,2.0107088E4,3.298424E4,1.3274686E4,3.8678794E3,8.0333447E3,1.9737526E3,-4.3920894E3,4.663359E3,2.3531383E4,5.705211E3,1.2649182E4,3.387213E4,2.2086242E4,1.4712662E4,2.1799322E4,1.7993992E3,2.5668941E4,1.6276576E3,3.888906E4,1.941386E4,1.121532E4,4.105017E3,3.0828668E4,2.7005848E4,3.375781E4,1.5054573E3,2.1451916E4,1.1275912E4,1.9169389E4,1.5692023E4,2.7300205E4,3.0294682E4,2.0477373E4,3.7487156E4,7.833137E3,3.667385E4,2.322157E4,7.352535E4,-3.795073E2,1.4012004E3,1.9868443E4,3.5156894E2,1.7258758E4,1.9251883E4,2.9812691E4,1.0120059E4,2.503432E4,-2.8336673E2,-1.6447611E3,1.7784902E3,2.3557781E4,2.4475134E3,3.4449797E4,1.5071644E4,3.0226508E4,1.4288625E3,1.5074562E4,2.3125605E4,1.6182772E4,1.8150964E3,2.6083271E4,3.6806528E3,4.006698E4,4.375324E3,3.1790037E4,9.961409E3,6.861106E3,1.2546057E4,3.0310262E4,5.717922E3,8.059902E3,1.7945637E4,2.0155197E4,2.8769066E4,6.158468E3,3.6546846E3,3.057505E4,1.8101264E4,2.1158086E4,3.9720402E4,6.349364E3,2.3653502E4,3.4911363E4,2.1977293E4,5.0210727E4,1.0220483E4,7.485304E4,1.6749066E4,-4.649923E2,2.8916401E3,5.923683E3,3.7182434E3,1.7383135E4,9.323709E3,5.48221E3,3.7536377E3,1.0319613E4,1.9499109E3,7.4898994E3,3.331715E3,2.3616514E4,2.6424565E3,3.503444E4,6.2963214E2,1.5888513E4,4.4007095E3,3.2374275E4,3.3383489E3,1.5379623E4,5.3618604E3,2.3298637E4,1.2239987E2,1.6405184E4,1.3622203E3,2.6298326E4,3.7401387E3,4.1373086E4,2.378691E3,9.44166E3,2.674789E4,1.1737293E4,1.9637203E4,1.6213909E4,2.2423861E4,1.8847127E4,2.5896293E4,9.5176455E3,1.7403746E3,3.070389E4,1.0851338E3,1.8172502E4,7.584911E2,2.1190295E4,3.4364535E4,1.3777324E4,2.7414375E4,4.016396E4,2.0052523E4,2.1643209E4,8.206149E4,3.5686117E4,2.9582467E4,6.952239E4,1.5831671E4,2.3799771E4,1.9988629E4,-5.3640796E2,5.2476973E3,4.674461E3,2.9049065E3,6.923761E3,1.5640474E3,1.0393369E4,5.5439556E3,3.2962754E3,-1.730758E2,2.104988E3,3.1406914E3,9.951258E3,1.2282487E3,2.37287E2,1.0286431E3,4.5387017E3,1.8437023E3,3.729232E2,6.3977583E3,7.8290977E3,1.9147971E3,4.903442E3,2.589051E3,7.79699E3,4.8928096E3,1.2686263E4,2.8376182E3,7.9869644E3,2.3905762E3,5.8012354E3,4.3077793E3,5.222355E3,6.299475E3,8.646414E3,4.996235E3,6.0721772E3,1.1321464E4,7.0190015E3,1.7859358E3,9.023606E3,2.453988E3,5.360253E3,9.5742444E2,6.210355E3,4.2387793E3,1.02573125E4,1.205836E4,4.7706895E3,1.7638434E4,1.0073808E4,1.8049213E4,6.2674536E3,2.6886117E4,1.027222E4,2.760009E3,1.1107732E4,2.4058156E4,1.752614E4,6.23209E3,4.1043237E3,1.3097471E4,6.6041006E3,9.210966E3,5.4991084E3,5.5660737E3,-1.7825453E2],"categories":[],"categories_nodes":[],"categories_segments":[],"categories_sizes":[],"default_left":[0,0,0,0,0,0,0,0,0,0,0,0,0,0,0,0,0,0,0,0,0,0,0,0,0,0,0,0,0,0,0,0,0,0,0,0,0,0,0,0,0,0,0,0,0,0,0,0,0,0,0,0,0,0,0,0,0,0,0,0,0,0,0,0,0,0,0,0,0,0,0,0,0,0,0,0,0,0,0,0,0,0,0,0,0,0,0,0,0,0,0,0,0,0,0,0,0,0,0,0,0,0,0,0,0,0,0,0,0,0,0,0,0,0,0,0,0,0,0,0,0,0,0,0,0,0,0,0,0,0,0,0,0,0,0,0,0,0,0,0,0,0,0,0,0,0,0,0,0,0,0,0,0,0,0,0,0,0,0,0,0,0,0,0,0,0,0,0,0,0,0,0,0,0,0,0,0,0,0,0,0,0,0,0,0,0,0,0,0,0,0,0,0,0,0,0,0,0,0,0,0,0,0,0,0,0,0,0,0,0,0,0,0,0,0,0,0,0,0,0,0,0,0,0,0,0,0,0,0,0,0,0,0,0,0,0,0,0,0,0,0,0,0,0,0,0,0,0,0,0,0,0,0,0,0,0,0,0,0,0,0,0,0,0,0,0,0,0,0,0,0,0,0,0,0,0,0,0,0,0,0,0,0,0,0,0,0,0,0],"id":6,"left_children":[1,3,5,-1,7,9,11,13,15,-1,17,19,21,23,25,27,29,31,33,35,37,39,41,43,45,-1,47,-1,-1,-1,-1,49,51,53,-1,55,57,59,61,63,65,67,69,-1,-1,71,73,-1,75,77,79,81,83,-1,85,-1,87,89,91,93,95,-1,97,99,101,103,105,107,109,111,113,-1,-1,-1,115,117,119,121,-1,-1,-1,-1,123,-1,125,-1,-1,127,129,131,133,-1,135,-1,137,-1,-1,-1,139,141,143,-1,145,-1,147,-1,149,151,153,155,-1,157,159,161,163,-1,165,-1,167,169,171,-1,173,-1,-1,-1,175,-1,177,179,181,-1,183,185,187,-1,189,-1,191,-1,193,-1,-1,-1,195,-1,-1,197,199,201,-1,-1,203,205,207,209,-1,-1,211,213,215,-1,217,219,221,-1,-1,-1,223,-1,-1,-1,-1,-1,-1,-1,225,-1,227,-1,229,231,233,235,237,239,241,-1,243,-1,245,-1,247,-1,-1,249,-1,251,253,255,257,259,-1,-1,261,-1,263,-1,265,267,-1,269,271,-1,273,275,277,-1,279,281,283,285,287,-1,-1,-1,-1,-1,-1,-1,-1,-1,-1,-1,-1,-1,-1,-1,-1,-1,-1,-1,-1,-1,-1,-1,-1,-1,-1,-1,-1,-1,-1,-1,-1,-1,-1,-1,-1,-1,-1,-1,-1,-1,-1,-1,-1,-1,-1,-1,-1,-1,-1,-1,-1,-1,-1,-1,-1,-1,-1,-1,-1,-1,-1,-1,-1,-1,-1],"loss_changes":[5.5669273E11,4.469306E10,5.5028725E11,0E0,8.641479E9,8.853783E9,5.4735775E11,9.877881E9,2.7759084E9,0E0,6.927876E9,2.1144764E10,5.180672E11,2.3909827E9,1.9757466E9,1.7456415E9,8.14121E7,1.0973938E10,2.0523336E9,1.2820709E10,4.998775E9,8.115585E9,5.1924163E11,2.41451E8,6.117704E8,0E0,1.9447808E9,0E0,0E0,0E0,0E0,1.4430372E9,1.6142008E9,1.1040276E9,0E0,6.6546565E9,1.0205266E9,1.3245317E9,1.2986778E8,2.7125514E9,9.459139E9,1.2629901E10,5.1382603E11,0E0,0E0,5.614592E7,5.560115E7,0E0,6.94485E8,1.1530404E9,4.105011E7,1.4881083E8,1.2858163E8,0E0,3.269509E8,0E0,4.266967E9,2.5374884E9,4.712407E8,6.882632E8,3.539288E9,0E0,1.4578893E8,7.693271E8,6.936576E7,7.4756915E8,1.9131269E9,1.1173855E10,1.5319532E9,1.821406E10,5.132832E11,0E0,0E0,0E0,5.827584E7,2.1753037E8,6.3789056E8,5.2874445E8,0E0,0E0,0E0,0E0,7.17036E6,0E0,5.5885824E7,0E0,0E0,1.4949581E9,2.6278748E9,1.7899418E8,2.2255043E9,0E0,4.9156096E8,0E0,6.119096E8,0E0,0E0,0E0,8.956723E7,1.0054492E9,1.1504845E9,0E0,6.802842E7,0E0,4.140073E8,0E0,8.1012326E8,3.620946E8,6.635192E8,1.6423158E9,0E0,6.8266394E9,2.0825571E10,2.2038118E9,5.121582E11,0E0,1.176576E7,0E0,2.1133722E8,3.0122803E8,4.732027E8,0E0,5.485568E7,0E0,0E0,0E0,3.93216E7,0E0,1.4374175E9,2.9299712E8,1.1887575E9,0E0,1.9211571E8,7.3569075E8,2.3857357E8,0E0,2.416558E8,0E0,6.830408E8,0E0,1.1651891E8,0E0,0E0,0E0,1.02076006E9,0E0,0E0,5.486838E8,6.10091E8,4.7262106E8,0E0,0E0,2.806907E8,8.74537E7,2.422702E8,7.851295E8,0E0,0E0,3.663741E9,8.250163E9,1.0024911E10,0E0,5.554864E9,1.0858627E10,5.083913E11,0E0,0E0,0E0,2.8536013E8,0E0,0E0,0E0,0E0,0E0,0E0,0E0,5.292032E6,0E0,1.4429716E9,0E0,1.9637146E8,4.606308E7,4.10155E8,3.10638E6,4.609229E7,7.306416E6,7.907574E8,0E0,1.2799795E8,0E0,2.3103898E8,0E0,8.3276595E8,0E0,0E0,1.7011712E8,0E0,1.4537523E8,1.0774528E8,1.4537114E8,4.1193472E8,8.8283136E8,0E0,0E0,2.701148E8,0E0,5.593907E7,0E0,1.9357696E8,2.213888E7,0E0,7.4494034E9,5.892391E9,0E0,4.370694E9,4.5919437E8,8.92244E8,0E0,4.610425E9,1.4908916E10,4.1116467E9,1.6082764E10,4.92817E11,0E0,0E0,0E0,0E0,0E0,0E0,0E0,0E0,0E0,0E0,0E0,0E0,0E0,0E0,0E0,0E0,0E0,0E0,0E0,0E0,0E0,0E0,0E0,0E0,0E0,0E0,0E0,0E0,0E0,0E0,0E0,0E0,0E0,0E0,0E0,0E0,0E0,0E0,0E0,0E0,0E0,0E0,0E0,0E0,0E0,0E0,0E0,0E0,0E0,0E0,0E0,0E0,0E0,0E0,0E0,0E0,0E0,0E0,0E0,0E0,0E0,0E0,0E0,0E0,0E0,0E0],"parents":[2147483647,0,0,1,1,2,2,4,4,5,5,6,6,7,7,8,8,10,10,11,11,12,12,13,13,14,14,15,15,16,16,17,17,18,18,19,19,20,20,21,21,22,22,23,23,24,24,26,26,31,31,32,32,33,33,35,35,36,36,37,37,38,38,39,39,40,40,41,41,42,42,45,45,46,46,48,48,49,49,50,50,51,51,52,52,54,54,56,56,57,57,58,58,59,59,60,60,62,62,63,63,64,64,65,65,66,66,67,67,68,68,69,69,70,70,74,74,75,75,76,76,77,77,82,82,84,84,87,87,88,88,89,89,90,90,92,92,94,94,98,98,99,99,100,100,102,102,104,104,106,106,107,107,108,108,109,109,111,111,112,112,113,113,114,114,116,116,118,118,119,119,120,120,122,122,126,126,128,128,129,129,130,130,132,132,133,133,134,134,136,136,138,138,140,140,144,144,147,147,148,148,149,149,152,152,153,153,154,154,155,155,158,158,159,159,160,160,162,162,163,163,164,164,168,168,176,176,178,178,180,180,181,181,182,182,183,183,184,184,185,185,186,186,188,188,190,190,192,192,195,195,197,197,198,198,199,199,200,200,201,201,204,204,206,206,208,208,209,209,211,211,212,212,214,214,215,215,216,216,218,218,219,219,220,220,221,221,222,222],"right_children":[2,4,6,-1,8,10,12,14,16,-1,18,20,22,24,26,28,30,32,34,36,38,40,42,44,46,-1,48,-1,-1,-1,-1,50,52,54,-1,56,58,60,62,64,66,68,70,-1,-1,72,74,-1,76,78,80,82,84,-1,86,-1,88,90,92,94,96,-1,98,100,102,104,106,108,110,112,114,-1,-1,-1,116,118,120,122,-1,-1,-1,-1,124,-1,126,-1,-1,128,130,132,134,-1,136,-1,138,-1,-1,-1,140,142,144,-1,146,-1,148,-1,150,152,154,156,-1,158,160,162,164,-1,166,-1,168,170,172,-1,174,-1,-1,-1,176,-1,178,180,182,-1,184,186,188,-1,190,-1,192,-1,194,-1,-1,-1,196,-1,-1,198,200,202,-1,-1,204,206,208,210,-1,-1,212,214,216,-1,218,220,222,-1,-1,-1,224,-1,-1,-1,-1,-1,-1,-1,226,-1,228,-1,230,232,234,236,238,240,242,-1,244,-1,246,-1,248,-1,-1,250,-1,252,254,256,258,260,-1,-1,262,-1,264,-1,266,268,-1,270,272,-1,274,276,278,-1,280,282,284,286,288,-1,-1,-1,-1,-1,-1,-1,-1,-1,-1,-1,-1,-1,-1,-1,-1,-1,-1,-1,-1,-1,-1,-1,-1,-1,-1,-1,-1,-1,-1,-1,-1,-1,-1,-1,-1,-1,-1,-1,-1,-1,-1,-1,-1,-1,-1,-1,-1,-1,-1,-1,-1,-1,-1,-1,-1,-1,-1,-1,-1,-1,-1,-1,-1,-1,-1],"split_conditions":[2.00001E0,2.00001E0,2.00001E0,4.1924586E4,9.0026E4,2.00001E0,2.00001E0,2.1502E4,8E0,2.4591691E4,9.0048E4,9.0026E4,2.00001E0,2.6E1,2.00001E0,9.3721E4,2.00001E0,2.332E4,9.5926E4,2.3226E4,9.5926E4,2.1502E4,2.00001E0,2.0678E4,1.1795E4,1.2247699E4,2.00001E0,7.3251187E3,9.920108E3,1.3900884E3,6.0971396E3,3.7E1,2.00001E0,2.00001E0,8.51662E3,2.00001E0,7.703E4,9.4062E4,2.00001E0,3.7E1,9.0026E4,9.0026E4,2.00001E0,8.175923E3,1.0629125E4,3.5E1,2.00001E0,1.3235887E4,8.0045E4,2.0678E4,2.00001E0,2.022E3,2E0,3.176824E3,2.00001E0,2.1841885E4,3.7E1,1.3E1,2.00001E0,2.00001E0,9.4546E4,3.3043713E3,2.00001E0,1.0016E4,2.00001E0,2.00001E0,2.00001E0,2.2033E4,9.6766E4,1.1795E4,2.00001E0,6.317387E3,8.934221E3,2.1859001E3,2.00001E0,2.00001E0,2.00001E0,1.1795E4,1.3274686E4,3.8678794E3,8.0333447E3,1.9737526E3,2.023E3,4.663359E3,2.00001E0,5.705211E3,1.2649182E4,2.00001E0,1.9104E4,2.00001E0,6.5804E4,1.7993992E3,2.00001E0,1.6276576E3,2.00001E0,1.941386E4,1.121532E4,4.105017E3,2.00001E0,2.601E3,1.0549E4,1.5054573E3,1.9047E4,1.1275912E4,4.806E4,1.5692023E4,9.7477E4,2.00001E0,1.3E1,2.00001E0,7.833137E3,2.00001E0,9.4062E4,5E0,2.00001E0,1.4012004E3,2.00001E0,3.5156894E2,2E0,2.00001E0,2.00001E0,1.0120059E4,2.00001E0,-2.8336673E2,-1.6447611E3,1.7784902E3,2.00001E0,2.4475134E3,2.00001E0,2.00001E0,2.00001E0,1.4288625E3,2.00001E0,2.00001E0,2.00001E0,1.8150964E3,2.00001E0,3.6806528E3,2.00001E0,4.375324E3,2.00001E0,9.961409E3,6.861106E3,1.2546057E4,2.0678E4,5.717922E3,8.059902E3,3.3407E4,6.1081E4,9.3721E4,6.158468E3,3.6546846E3,2.00001E0,2.00001E0,2.00001E0,9.4062E4,6.349364E3,2.3653502E4,1.0016E4,2.00001E0,9.4546E4,1.0220483E4,8E0,9.0026E4,2.00001E0,2.8916401E3,5.923683E3,3.7182434E3,6.3131E4,9.323709E3,5.48221E3,3.7536377E3,1.0319613E4,1.9499109E3,7.4898994E3,3.331715E3,2.00001E0,2.6424565E3,2.00001E0,6.2963214E2,1.8015E4,2.022E3,2.00001E0,2.022E3,2.00001E0,2.023E3,5.4911E4,1.2239987E2,2.00001E0,1.3622203E3,2.00001E0,3.7401387E3,2.00001E0,2.378691E3,9.44166E3,2.00001E0,1.1737293E4,2.00001E0,3.9202E4,6.0611E4,7.703E4,9.0404E4,9.5176455E3,1.7403746E3,2.00001E0,1.0851338E3,2.00001E0,7.584911E2,2.00001E0,2.00001E0,1.3777324E4,6.81E3,1.0065E4,2.0052523E4,2.00001E0,2.023E3,2.00001E0,2.9582467E4,2.7804E4,2.2033E4,9.0404E4,1.1795E4,2.00001E0,5.2476973E3,4.674461E3,2.9049065E3,6.923761E3,1.5640474E3,1.0393369E4,5.5439556E3,3.2962754E3,-1.730758E2,2.104988E3,3.1406914E3,9.951258E3,1.2282487E3,2.37287E2,1.0286431E3,4.5387017E3,1.8437023E3,3.729232E2,6.3977583E3,7.8290977E3,1.9147971E3,4.903442E3,2.589051E3,7.79699E3,4.8928096E3,1.2686263E4,2.8376182E3,7.9869644E3,2.3905762E3,5.8012354E3,4.3077793E3,5.222355E3,6.299475E3,8.646414E3,4.996235E3,6.0721772E3,1.1321464E4,7.0190015E3,1.7859358E3,9.023606E3,2.453988E3,5.360253E3,9.5742444E2,6.210355E3,4.2387793E3,1.02573125E4,1.205836E4,4.7706895E3,1.7638434E4,1.0073808E4,1.8049213E4,6.2674536E3,2.6886117E4,1.027222E4,2.760009E3,1.1107732E4,2.4058156E4,1.752614E4,6.23209E3,4.1043237E3,1.3097471E4,6.6041006E3,9.210966E3,5.4991084E3,5.5660737E3,-1.7825453E2],"split_indices":[3372,2634,3223,0,3666,1289,3222,3666,3665,0,3666,3666,3097,3665,1040,3666,2920,3666,3666,3666,3666,3666,3181,3666,3666,0,503,0,0,0,0,3665,268,241,0,1289,3666,3666,2255,3665,3666,3666,3085,0,0,3665,1922,0,3666,3666,2804,3667,3665,0,331,0,3665,3665,1788,296,3666,0,2225,3666,2333,914,293,3666,3666,3666,3093,0,0,0,1867,1563,3652,3666,0,0,0,0,3667,0,1211,0,0,1828,3666,185,3666,0,492,0,331,0,0,0,2908,3666,3666,0,3666,0,3666,0,3666,1828,3665,3652,0,1843,3666,3665,3647,0,2273,0,3665,96,512,0,1922,0,0,0,2180,0,1712,2328,2390,0,609,962,2180,0,2581,0,398,0,2909,0,0,0,3666,0,0,3666,3666,3666,0,0,2390,693,2838,3666,0,0,3666,204,3666,0,3665,3666,3258,0,0,0,3666,0,0,0,0,0,0,0,1147,0,1858,0,3666,3667,2812,3667,19,3667,3666,0,1191,0,2660,0,372,0,0,1932,0,618,3666,3666,3666,3666,0,0,2324,0,150,0,1615,291,0,3666,3666,0,309,3667,393,0,3666,3666,3666,3666,3262,0,0,0,0,0,0,0,0,0,0,0,0,0,0,0,0,0,0,0,0,0,0,0,0,0,0,0,0,0,0,0,0,0,0,0,0,0,0,0,0,0,0,0,0,0,0,0,0,0,0,0,0,0,0,0,0,0,0,0,0,0,0,0,0,0,0],"split_type":[0,0,0,0,0,0,0,0,0,0,0,0,0,0,0,0,0,0,0,0,0,0,0,0,0,0,0,0,0,0,0,0,0,0,0,0,0,0,0,0,0,0,0,0,0,0,0,0,0,0,0,0,0,0,0,0,0,0,0,0,0,0,0,0,0,0,0,0,0,0,0,0,0,0,0,0,0,0,0,0,0,0,0,0,0,0,0,0,0,0,0,0,0,0,0,0,0,0,0,0,0,0,0,0,0,0,0,0,0,0,0,0,0,0,0,0,0,0,0,0,0,0,0,0,0,0,0,0,0,0,0,0,0,0,0,0,0,0,0,0,0,0,0,0,0,0,0,0,0,0,0,0,0,0,0,0,0,0,0,0,0,0,0,0,0,0,0,0,0,0,0,0,0,0,0,0,0,0,0,0,0,0,0,0,0,0,0,0,0,0,0,0,0,0,0,0,0,0,0,0,0,0,0,0,0,0,0,0,0,0,0,0,0,0,0,0,0,0,0,0,0,0,0,0,0,0,0,0,0,0,0,0,0,0,0,0,0,0,0,0,0,0,0,0,0,0,0,0,0,0,0,0,0,0,0,0,0,0,0,0,0,0,0,0,0,0,0,0,0,0,0,0,0,0,0,0,0,0,0,0,0,0,0,0,0,0,0,0,0],"sum_hessian":[3.55326E5,1.287E3,3.54039E5,2E0,1.285E3,7.18E2,3.53321E5,1.088E3,1.97E2,2E0,7.16E2,7.83E2,3.52538E5,1.75E2,9.13E2,1.31E2,6.6E1,6.25E2,9.1E1,6.76E2,1.07E2,1E3,3.51538E5,8.1E1,9.4E1,3E0,9.1E2,6.8E1,6.3E1,1E0,6.5E1,1.8E2,4.45E2,4.8E1,4.3E1,1.76E2,5E2,6.6E1,4.1E1,2E2,8E2,8.98E2,3.5064E5,5.9E1,2.2E1,3.5E1,5.9E1,2E0,9.08E2,1.26E2,5.4E1,3E0,4.42E2,2E0,4.6E1,3E0,1.73E2,4.18E2,8.2E1,3.6E1,3E1,2E0,3.9E1,1.48E2,5.2E1,6.44E2,1.56E2,7.94E2,1.04E2,7.75E2,3.49865E5,1.9E1,1.6E1,2E0,5.7E1,7.63E2,1.45E2,1.09E2,1.7E1,3E0,5.1E1,1E0,2E0,1.1E1,4.31E2,3E0,4.3E1,1.2E2,5.3E1,7E1,3.48E2,2E0,8E1,1E0,3.5E1,1.3E1,1.7E1,3E0,3.6E1,7.1E1,7.7E1,1E0,5.1E1,2E0,6.42E2,3E0,1.53E2,1.48E2,6.46E2,7E1,3.4E1,1.23E2,6.52E2,9.3E1,3.49772E5,1E0,5.6E1,1E0,7.62E2,1.36E2,9E0,8.8E1,2.1E1,1E0,1E0,1E0,4.3E2,3E0,1.17E2,3E1,2.3E1,3E0,6.7E1,2.79E2,6.9E1,2E0,7.8E1,2E0,3.3E1,3E0,3.3E1,2.1E1,5E1,1.8E1,5.9E1,4.2E1,9E0,2.95E2,3.47E2,1.21E2,3.2E1,3E0,1.45E2,1.5E2,4.96E2,6E1,1E1,3E0,1.2E2,6.25E2,2.7E1,4E0,8.9E1,1.736E3,3.48036E5,3E0,5.3E1,2.3E1,7.39E2,3E0,1.33E2,3E0,6E0,1E0,2E1,3E0,4.27E2,3E0,1.14E2,2E0,2.8E1,2E0,2.1E1,2E0,6.5E1,3E0,2.76E2,1E0,6.8E1,1E0,7.7E1,2E0,3.1E1,1E0,3.2E1,4.6E1,1.3E1,1.44E2,1.51E2,1.21E2,2.26E2,7.3E1,4.8E1,1E0,1.44E2,1E0,1.49E2,1E0,4.95E2,3.8E1,2.2E1,5.2E1,6.8E1,3E0,6.22E2,7E0,2E1,1.2E1,7.7E1,1.539E3,1.97E2,1.21E3,3.46826E5,5.24E2,2.15E2,2E0,4.25E2,2E0,1.12E2,1.5E1,1.3E1,1E0,1E0,2E0,1.9E1,1E0,1E0,1E0,6.4E1,2E0,1E0,2E2,7.6E1,3E0,6.5E1,2E0,7.5E1,3E0,2.8E1,2E0,4.4E1,3E0,1.41E2,8.4E1,6.7E1,1.11E2,1E1,1.22E2,1.04E2,7E0,6.6E1,1E0,1.43E2,3E0,1.46E2,1E0,4.94E2,2E0,3.6E1,2.2E1,3E1,1.3E1,5.5E1,2E0,6.2E2,5E0,2E0,2E0,1.8E1,3E1,4.7E1,3.8E2,1.159E3,9E0,1.88E2,1.12E2,1.098E3,1.283E3,3.45543E5],"tree_param":{"num_deleted":"0","num_feature":"3668","num_nodes":"289","size_leaf_vector":"1"}},{"base_weights":[1.2823906E1,5.0300133E4,-1.3229971E1,6.4919582E4,4.6305406E4,5.448865E4,-3.7180798E1,2.8879414E3,6.6174695E4,4.1174902E4,6.4340695E4,4.9205586E4,2.4261826E4,7.597414E4,-5.388591E1,5.678406E3,6.69567E4,3.8630393E3,4.154345E4,7.069439E3,6.6279164E4,5.352143E4,3.4937766E4,5.126353E4,7.105924E4,3.7382324E4,-8.7141464E1,5.7593887E3,1.9833566E4,2.0152153E3,4.1784945E4,7.1323706E3,6.848092E4,4.139296E4,6.0179984E4,2.4654139E4,2.7449213E4,4.681823E4,6.6494445E4,3.315419E4,6.825438E4,3.2111824E4,-1.2559713E2,3.9642168E3,4.21649E4,4.477329E3,6.993801E4,8.223705E4,3.5704926E4,1.3277051E4,6.2303848E4,4.2633098E4,2.2099756E4,9.922135E2,6.7312445E4,5.1215184E4,2.8182459E4,8.175358E4,4.9463363E4,3.0073158E4,4.7412375E4,3.1409898E4,-1.3712628E2,2.0876018E3,4.2413992E4,8.0911333E3,7.23104E4,8.327616E3,3.564468E4,1.8926148E4,3.1112291E4,5.590152E3,-6.137245E2,-1.2540314E2,6.337437E4,3.7390408E3,1.8096219E4,1.0948568E4,1.9141951E4,8.259584E4,5.9551926E4,5.078811E3,5.209886E4,3.594804E4,2.6048938E4,8.035106E3,8.6261516E4,3.489527E3,1.4917296E4,3.8757438E4,2.6698875E4,5.3947027E4,9.811428E3,2.252854E4,-1.909511E2,2.839362E3,4.2621297E4,6.076919E3,2.1554545E4,8.1051406E3,3.3142836E4,1.2911177E4,6.4918496E4,1.4128131E4,2.4247104E4,2.310521E4,9.873395E4,1.6307078E4,6.095558E4,2.806536E3,5.2686715E4,2.4655469E4,4.767976E4,2.1701766E4,2.9918773E4,6.572488E3,8.8693695E4,3.1042727E3,3.920986E4,3.2498977E3,2.6830531E4,4.951969E3,5.5917152E4,2.0264586E4,4.211566E4,2.3235482E4,-2.4218513E2,2.9021082E3,4.282847E4,6.683699E3,-4.4179688E3,3.719294E4,1.4522071E4,4.8149126E3,8.530962E2,1.7749073E3,6.5861164E4,1.6504865E4,4.0600781E3,6.041831E2,2.6482469E4,-1.2222405E3,2.939674E4,9.668204E3,1.0529151E5,6.712838E2,6.487526E3,4.9915386E3,6.2429434E4,7.4294316E3,5.375311E4,1.8200631E3,2.516454E4,7.126802E3,1.4696262E4,2.7447E4,1.8355924E4,3.3250557E3,3.0787592E4,6.6958745E3,2.6743068E4,4.162751E4,8.965787E3,3.442335E3,2.695532E4,6.438258E3,5.7614875E4,2.969476E4,1.9006068E4,4.4062983E3,4.258071E4,2.0805281E4,4.3680348E4,1.4010728E4,-3.2534647E2,3.0613994E3,1.2593293E4,-4.2935767E3,2.354088E3,1.0996976E3,1.1262778E4,1.080945E3,5.3016113E3,6.3538154E3,1.9636287E4,1.5888772E3,5.3742275E3,1.5701115E1,1.5738658E3,1.4056556E3,8.367941E3,2.5643508E3,9.472136E3,1.0315641E4,3.3175613E4,6.792775E3,1.8885285E4,4.102023E3,1.5876513E4,3.53455E3,7.7436943E3,1.7076392E3,8.19205E3,6.219912E2,5.530711E3,-2.4271735E2,1.4593226E3,1.8368486E3,9.155976E3,5.1544414E3,1.2401225E4,1.7981604E3,7.9050034E3,4.552074E3,1.7160336E4,7.819978E3,1.0246054E4,6.7118843E3,5.4379736E3,1.352384E4,1.0210233E4,8.221309E3,5.512649E3,1.4525746E4,9.809851E3,3.2111898E4,4.0573345E3,5.1074546E3,-1.14886086E2],"categories":[],"categories_nodes":[],"categories_segments":[],"categories_sizes":[],"default_left":[0,0,0,0,0,0,0,0,0,0,0,0,0,0,0,0,0,0,0,0,0,0,0,0,0,0,0,0,0,0,0,0,0,0,0,0,0,0,0,0,0,0,0,0,0,0,0,0,0,0,0,0,0,0,0,0,0,0,0,0,0,0,0,0,0,0,0,0,0,0,0,0,0,0,0,0,0,0,0,0,0,0,0,0,0,0,0,0,0,0,0,0,0,0,0,0,0,0,0,0,0,0,0,0,0,0,0,0,0,0,0,0,0,0,0,0,0,0,0,0,0,0,0,0,0,0,0,0,0,0,0,0,0,0,0,0,0,0,0,0,0,0,0,0,0,0,0,0,0,0,0,0,0,0,0,0,0,0,0,0,0,0,0,0,0,0,0,0,0,0,0,0,0,0,0,0,0,0,0,0,0,0,0,0,0,0,0,0,0,0,0,0,0,0,0,0,0,0,0,0,0,0,0,0,0,0,0,0,0,0,0,0,0,0,0,0,0,0,0,0,0,0,0,0,0,0,0,0,0],"id":7,"left_children":[1,3,5,7,9,11,13,-1,15,17,19,21,-1,23,25,-1,27,-1,29,-1,31,33,35,-1,37,39,41,-1,-1,-1,43,-1,45,47,49,-1,51,-1,53,55,57,59,61,-1,63,-1,65,67,69,71,73,75,77,-1,79,81,83,85,87,89,91,-1,93,-1,95,-1,97,-1,-1,-1,99,-1,-1,-1,101,-1,-1,-1,103,105,107,-1,109,111,113,-1,115,-1,-1,117,119,121,-1,123,125,-1,127,-1,-1,129,131,133,135,137,139,141,143,145,147,-1,149,151,153,155,157,-1,159,-1,161,-1,163,-1,165,167,169,171,173,-1,175,-1,177,179,181,-1,-1,-1,183,185,187,-1,189,-1,191,-1,193,-1,-1,-1,195,-1,197,-1,199,-1,-1,201,203,205,207,-1,-1,209,-1,-1,211,-1,213,215,217,-1,219,221,223,225,227,-1,-1,-1,-1,-1,-1,-1,-1,-1,-1,-1,-1,-1,-1,-1,-1,-1,-1,-1,-1,-1,-1,-1,-1,-1,-1,-1,-1,-1,-1,-1,-1,-1,-1,-1,-1,-1,-1,-1,-1,-1,-1,-1,-1,-1,-1,-1,-1,-1,-1,-1,-1,-1,-1],"loss_changes":[4.6554274E11,7.739638E9,4.6359455E11,1.903575E9,1.1045241E10,1.9335643E10,4.5076126E11,0E0,1.7629184E7,6.682542E8,8.138506E8,6.3814697E9,0E0,2.5577325E10,4.418551E11,0E0,9.551872E6,0E0,6.8318E8,0E0,1.0070344E9,5.6655544E9,1.0240483E10,0E0,2.0208517E10,3.8854394E10,4.3907894E11,0E0,0E0,0E0,6.6279834E8,0E0,1.0223288E9,6.1243146E9,5.4485647E9,0E0,1.5758111E9,0E0,3.5916022E9,2.3609246E10,5.3417574E9,1.176866E10,4.3876532E11,0E0,6.835241E8,0E0,6.0953395E8,5.044132E9,2.776621E9,3.9818938E8,4.0565146E9,3.2226765E9,4.16E8,0E0,3.7396152E9,8.61356E8,2.7251343E9,2.5272074E9,4.1050112E8,9.98323E9,2.547671E9,0E0,4.3204503E11,0E0,3.4603008E8,0E0,1.2647629E8,0E0,0E0,0E0,1.2730348E9,0E0,0E0,0E0,3.759194E9,0E0,0E0,0E0,2.4614963E8,1.884019E10,2.1624422E9,0E0,9.191424E8,4.786094E9,2.3283548E9,0E0,8.014889E8,0E0,0E0,8.958771E8,2.6461798E8,1.315242E9,0E0,3.6351443E10,4.2404843E11,0E0,3.2740147E8,0E0,0E0,8.388607E8,1.7223639E9,5.8225216E7,2.7629158E9,2.6799616E8,4.41194E8,1.1526185E9,3.8457344E9,1.955058E8,2.170372E9,0E0,2.6584678E8,7.814246E7,1.921024E7,1.168552E9,2.0001915E9,0E0,9.1183514E8,0E0,8.1864294E8,0E0,1.9254477E8,0E0,4.0249754E8,8.384086E9,4.411556E8,3.739848E10,4.1785645E11,0E0,2.655191E8,0E0,5.012919E8,8.90837E8,2.0542758E8,0E0,0E0,0E0,1.5923937E9,1.2668877E8,2.0826888E7,0E0,2.742871E8,0E0,2.2656E7,0E0,4.477911E9,0E0,0E0,0E0,2.4534876E9,0E0,2.813952E8,0E0,8.706867E7,0E0,0E0,1.8942362E8,4.697989E8,3.1740988E7,8.7579034E8,0E0,0E0,6.147195E8,0E0,0E0,1.4044365E8,0E0,2.4583373E8,4.400988E8,6.896845E8,0E0,7.3282355E8,9.385509E9,3.2353812E9,2.7329855E10,4.187152E11,0E0,0E0,0E0,0E0,0E0,0E0,0E0,0E0,0E0,0E0,0E0,0E0,0E0,0E0,0E0,0E0,0E0,0E0,0E0,0E0,0E0,0E0,0E0,0E0,0E0,0E0,0E0,0E0,0E0,0E0,0E0,0E0,0E0,0E0,0E0,0E0,0E0,0E0,0E0,0E0,0E0,0E0,0E0,0E0,0E0,0E0,0E0,0E0,0E0,0E0,0E0,0E0,0E0,0E0],"parents":[2147483647,0,0,1,1,2,2,3,3,4,4,5,5,6,6,8,8,9,9,10,10,11,11,13,13,14,14,16,16,18,18,20,20,21,21,22,22,24,24,25,25,26,26,30,30,32,32,33,33,34,34,36,36,38,38,39,39,40,40,41,41,42,42,44,44,46,46,47,47,48,48,49,49,50,50,51,51,52,52,54,54,55,55,56,56,57,57,58,58,59,59,60,60,62,62,64,64,66,66,70,70,74,74,78,78,79,79,80,80,82,82,83,83,84,84,86,86,89,89,90,90,91,91,93,93,94,94,96,96,99,99,100,100,101,101,102,102,103,103,104,104,105,105,106,106,107,107,108,108,110,110,111,111,112,112,113,113,114,114,116,116,118,118,120,120,122,122,123,123,124,124,125,125,126,126,128,128,130,130,131,131,132,132,136,136,137,137,138,138,140,140,142,142,144,144,148,148,150,150,152,152,155,155,156,156,157,157,158,158,161,161,164,164,166,166,167,167,168,168,170,170,171,171,172,172,173,173,174,174],"right_children":[2,4,6,8,10,12,14,-1,16,18,20,22,-1,24,26,-1,28,-1,30,-1,32,34,36,-1,38,40,42,-1,-1,-1,44,-1,46,48,50,-1,52,-1,54,56,58,60,62,-1,64,-1,66,68,70,72,74,76,78,-1,80,82,84,86,88,90,92,-1,94,-1,96,-1,98,-1,-1,-1,100,-1,-1,-1,102,-1,-1,-1,104,106,108,-1,110,112,114,-1,116,-1,-1,118,120,122,-1,124,126,-1,128,-1,-1,130,132,134,136,138,140,142,144,146,148,-1,150,152,154,156,158,-1,160,-1,162,-1,164,-1,166,168,170,172,174,-1,176,-1,178,180,182,-1,-1,-1,184,186,188,-1,190,-1,192,-1,194,-1,-1,-1,196,-1,198,-1,200,-1,-1,202,204,206,208,-1,-1,210,-1,-1,212,-1,214,216,218,-1,220,222,224,226,228,-1,-1,-1,-1,-1,-1,-1,-1,-1,-1,-1,-1,-1,-1,-1,-1,-1,-1,-1,-1,-1,-1,-1,-1,-1,-1,-1,-1,-1,-1,-1,-1,-1,-1,-1,-1,-1,-1,-1,-1,-1,-1,-1,-1,-1,-1,-1,-1,-1,-1,-1,-1,-1,-1],"split_conditions":[2.00001E0,2.3226E4,2.00001E0,2.00001E0,9.0026E4,8.0228E4,2.00001E0,2.8879414E3,2.00001E0,2.00001E0,2.00001E0,4.6E1,2.4261826E4,2.00001E0,2.00001E0,5.678406E3,2.00001E0,3.8630393E3,2.00001E0,7.069439E3,2.00001E0,2.1E1,2.00001E0,5.126353E4,2.00001E0,8.9149E4,2.00001E0,5.7593887E3,1.9833566E4,2.0152153E3,2.00001E0,7.1323706E3,2.00001E0,2.00001E0,2.00001E0,2.4654139E4,2.3601E4,4.681823E4,2.00001E0,1.104E4,9.4546E4,9.0026E4,2.00001E0,3.9642168E3,2.00001E0,4.477329E3,2.00001E0,2.023E3,2.00001E0,2.023E3,2.00001E0,2.00001E0,2.00001E0,9.922135E2,1.8E1,2.00001E0,2.2401E4,2.00001E0,2.00001E0,2.3226E4,9.5926E4,3.1409898E4,2.00001E0,2.0876018E3,2.00001E0,8.0911333E3,2.00001E0,8.327616E3,3.564468E4,1.8926148E4,2.00001E0,5.590152E3,-6.137245E2,-1.2540314E2,2.00001E0,3.7390408E3,1.8096219E4,1.0948568E4,2.023E3,2.022E3,2.00001E0,5.078811E3,2.00001E0,1.9104E4,4.7747E4,8.035106E3,2.00001E0,3.489527E3,1.4917296E4,2.00001E0,2.00001E0,2.00001E0,9.811428E3,9.0026E4,2.00001E0,2.839362E3,2.00001E0,6.076919E3,2.1554545E4,2.022E3,1.8E1,2.023E3,2.00001E0,7.5601E4,2.00001E0,2.00001E0,2.00001E0,2.023E3,2.00001E0,2.806536E3,2.00001E0,2.00001E0,2.00001E0,3.2771E4,2.00001E0,6.572488E3,2.00001E0,3.1042727E3,3.7E1,3.2498977E3,2.00001E0,4.951969E3,2.00001E0,1.2208E4,2.00001E0,8.9149E4,2.00001E0,2.9021082E3,2.00001E0,6.683699E3,2.023E3,2.00001E0,2.022E3,4.8149126E3,8.530962E2,1.7749073E3,2.00001E0,2.00001E0,2.00001E0,6.041831E2,2.00001E0,-1.2222405E3,2.00001E0,9.668204E3,2.00001E0,6.712838E2,6.487526E3,4.9915386E3,2.00001E0,7.4294316E3,2.00001E0,1.8200631E3,2.00001E0,7.126802E3,1.4696262E4,2.00001E0,2.00001E0,2.022E3,2.00001E0,6.6958745E3,2.6743068E4,2.00001E0,8.965787E3,3.442335E3,2.00001E0,6.438258E3,2.00001E0,1.0016E4,2.2033E4,4.4062983E3,9.5926E4,2.3226E4,9.5926E4,2.00001E0,2.00001E0,3.0613994E3,1.2593293E4,-4.2935767E3,2.354088E3,1.0996976E3,1.1262778E4,1.080945E3,5.3016113E3,6.3538154E3,1.9636287E4,1.5888772E3,5.3742275E3,1.5701115E1,1.5738658E3,1.4056556E3,8.367941E3,2.5643508E3,9.472136E3,1.0315641E4,3.3175613E4,6.792775E3,1.8885285E4,4.102023E3,1.5876513E4,3.53455E3,7.7436943E3,1.7076392E3,8.19205E3,6.219912E2,5.530711E3,-2.4271735E2,1.4593226E3,1.8368486E3,9.155976E3,5.1544414E3,1.2401225E4,1.7981604E3,7.9050034E3,4.552074E3,1.7160336E4,7.819978E3,1.0246054E4,6.7118843E3,5.4379736E3,1.352384E4,1.0210233E4,8.221309E3,5.512649E3,1.4525746E4,9.809851E3,3.2111898E4,4.0573345E3,5.1074546E3,-1.14886086E2],"split_indices":[3370,3666,3083,1294,3666,3666,3095,0,2365,1988,224,3665,0,2339,3219,0,2282,0,2838,0,2894,3665,2619,0,1480,3666,3301,0,0,0,2617,0,458,736,1986,0,3666,0,483,3666,3666,3666,2637,0,1134,0,82,3667,886,3667,2000,2843,2645,0,3665,2804,3666,238,2908,3666,3666,0,3234,0,2539,0,318,0,0,0,772,0,0,0,1622,0,0,0,3667,3667,1739,0,1712,3666,3666,0,219,0,0,1828,2596,291,0,3666,3236,0,151,0,0,3667,3665,3667,2112,3666,3000,14,363,3667,2118,0,1739,2356,2843,3666,2209,0,301,0,3665,0,50,0,375,3666,202,3666,3377,0,2521,0,3667,706,3667,0,0,0,1497,3032,2583,0,2563,0,363,0,488,0,0,0,1589,0,1383,0,1858,0,0,2862,1183,3667,2217,0,0,1811,0,0,2072,0,331,3666,3666,0,3666,3666,3666,785,3371,0,0,0,0,0,0,0,0,0,0,0,0,0,0,0,0,0,0,0,0,0,0,0,0,0,0,0,0,0,0,0,0,0,0,0,0,0,0,0,0,0,0,0,0,0,0,0,0,0,0,0,0,0,0],"split_type":[0,0,0,0,0,0,0,0,0,0,0,0,0,0,0,0,0,0,0,